432 150
plane -0.062341 -0.19188 -0.43637 -0.12469 -0.24111 0.50467 -0.14546 0.40684 0.0049435 -0.070708 -0.13243 0.66276 0.047155 0.1339 -0.090958 0.10605 0.67296 0.16078 -0.11825 0.48694 0.15147 0.11408 -0.28874 0.28409 -0.30374 0.26132 -0.18653 -0.23029 -0.39526 -0.023614 -0.42715 -0.18039 0.31042 0.43584 0.0033983 0.27653 0.44963 -0.18253 -0.42169 -0.10829 0.89339 -0.32834 -0.018039 -0.45063 0.053171 -0.10033 -0.32212 0.049936 0.072956 0.15095 0.094823 -0.25611 -0.23915 -0.19585 0.45676 -0.40385 0.043959 -0.17216 -0.49684 -0.08788 -0.4172 0.035284 -0.20467 -0.083819 0.12426 -0.025057 0.15382 -0.35195 0.005901 -0.10513 -0.12188 0.40154 0.074313 0.21649 0.15909 0.28033 -0.13115 0.20407 0.59274 0.073311 7.2431E-4 -0.60527 -0.16108 0.1917 -0.3992 -0.11058 0.30681 0.073087 0.0022859 0.57929 -0.14313 -0.27323 0.097457 0.03855 -0.45555 -0.28973 -0.20996 -0.12956 -0.0088528 -0.21696 -0.091011 -0.38854 -0.42845 -0.49758 -0.20228 0.27666 -1.1149 0.078022 0.42451 0.060316 0.14219 0.14648 0.18477 -0.44309 0.25748 -0.19252 -0.049224 0.048111 -0.13291 -0.40399 0.086961 0.34676 -0.018146 0.3659 -0.01422 -0.094487 0.058437 -0.31005 -0.12353 0.056108 -0.0095769 -0.59937 0.44364 -0.09267 -0.22185 -0.033063 0.017138 -0.14481 0.059976 -0.24398 -0.20203 -0.29819 -0.013993 -0.68555 0.40982 0.12951 -0.74164 0.025462 0.0049088 0.06119
stupid -0.275 0.31453 -0.24999 -0.28733 -0.55034 -0.32977 -0.75917 0.10811 0.65395 0.13331 0.050304 0.022714 0.30351 0.31541 0.45629 -0.13115 -0.25576 -0.31944 -0.034822 -0.45461 0.15606 0.58044 -0.63946 -0.5727 0.099317 0.81394 -0.031154 -0.21047 -0.21109 -0.34481 -0.40145 0.037282 -0.21988 0.0062589 -0.26459 0.16771 -0.0088988 -0.31714 -0.156 -0.23541 0.68233 -0.36949 0.50528 -0.35322 0.10776 0.10988 -0.10928 -0.31424 0.079565 0.17486 -0.030155 -0.3136 -0.33363 0.24874 0.12846 -0.72125 -0.02148 -0.23431 0.1258 0.13112 -0.047723 0.019784 -0.4069 -0.18971 -0.22041 -0.10103 0.0238 0.15719 -0.12138 -0.023042 -0.22556 -0.19385 -0.10659 0.26432 0.25232 0.49014 0.059558 -0.025387 0.15549 0.12995 -0.23346 -0.018038 0.32214 -0.23359 0.0054048 0.089447 -0.38888 0.14913 -0.53974 0.21479 -0.066825 0.029433 -0.17709 0.035446 0.049603 -0.15595 0.33909 0.15743 -0.15047 -0.14002 -0.46066 0.22131 -0.061385 0.10049 -0.029125 -0.15305 -0.13832 0.4491 0.38868 0.071126 -0.074244 0.082524 -0.61348 0.16496 0.0038977 0.16508 0.27242 -0.16957 -0.16548 -0.051579 0.035822 -0.13197 -0.12356 0.084759 -0.1583 0.19712 0.69867 0.14034 0.17735 0.089718 -0.084944 0.12859 0.36659 0.47523 0.091574 -0.032508 0.12558 0.13145 0.023089 -0.30377 0.27411 -0.12516 -0.1651 0.3041 -0.055733 -0.014829 -0.50613 -0.36293 -0.28222 0.10608
egg 0.063505 -0.2436 0.0093372 -0.038085 -0.078042 0.012661 -0.13654 1.1329 -0.081115 -0.1445 0.5857 0.080495 0.35114 -0.087154 0.45109 0.28789 0.23221 -0.32972 -0.036213 -0.29409 -0.32226 0.074856 0.6352 0.010879 0.74209 0.22722 0.36105 -0.21636 0.053447 -0.30433 0.061129 -0.34383 0.12798 0.2642 0.67315 0.14962 0.43964 -0.21793 -0.21229 0.067025 0.20398 -0.097067 0.14651 0.09815 -0.30791 -0.11627 0.0043239 0.18169 -0.174 0.15044 0.29966 0.18744 -0.28723 0.17685 0.26921 -0.77688 0.17235 -0.53875 0.62561 -0.45367 0.16023 -0.015931 -0.057536 -0.44569 -0.23041 0.37931 -0.12109 0.50171 0.27182 -0.36288 -0.21307 0.16174 -0.069322 0.098086 0.20466 0.16933 0.38674 0.15249 -0.077144 -0.14797 0.081554 -0.28273 0.028373 0.048984 -0.43028 -0.063641 -0.19707 0.23867 -0.42998 -0.036345 0.0069691 0.034121 0.079162 0.51047 0.096168 -0.3048 -0.54307 0.067016 -0.28714 -0.28805 -0.42197 0.11174 -0.24651 0.41874 -0.19698 0.32062 -0.31616 -0.47424 0.093527 -0.041677 0.034906 0.25459 -0.035082 1.0543 0.059404 -0.29187 0.041616 0.30085 0.017108 -0.34916 0.43907 -0.71625 0.010058 -0.3924 -0.68275 0.35216 0.71213 -0.36064 -0.15552 0.21316 -0.48857 0.11812 0.26739 -0.40773 -0.084994 0.37672 0.29321 -0.1879 -0.46172 0.14815 0.17377 -0.23918 0.12008 0.080301 -0.013493 0.24714 -0.51502 -0.09364 -0.20853 -0.092872
year 0.27145 0.044525 -0.16339 0.31695 0.0099297 0.086948 -0.11681 0.048586 0.0035261 0.4176 -0.3847 -0.063992 0.22958 -0.078297 0.1128 -0.045797 -0.17043 0.045377 -0.025804 0.3219 -0.0901 0.26195 -0.038937 -0.08995 0.055451 0.22521 0.15685 -0.11726 -0.0036086 -0.13734 0.067284 0.008766 0.2575 -0.13139 -0.10199 0.036974 0.14125 -0.074311 -0.023118 0.051032 -0.15216 -0.020893 0.2258 -0.037236 0.082385 -0.32151 -0.12461 0.067981 -0.11749 -0.1277 0.19071 0.16521 -0.26529 -0.068995 -0.30881 -0.16946 -0.11508 0.17349 0.18375 0.18152 -0.17081 -0.17959 0.10839 -0.29597 -0.13703 -0.021512 0.10797 -0.14295 -0.11137 0.25168 0.20358 0.13351 0.26571 -0.26065 -0.30015 0.4404 0.060993 -0.40407 0.34461 0.060745 -0.45361 -0.14227 0.13087 0.11506 0.26554 0.064723 -0.0065574 0.26202 0.036603 0.18143 -0.11618 0.078349 0.5281 -0.030661 0.24243 -0.10276 -0.24559 0.064915 -0.30842 0.13354 -0.19223 -0.3067 -0.097096 -0.032095 0.079596 0.28342 -0.23894 0.065911 0.17896 -0.0039294 -0.11777 0.1228 -0.023694 0.37627 0.20622 -0.055014 0.4096 -0.051369 -0.027999 -0.19994 -0.082986 0.081365 0.087 -0.29192 -0.21126 -0.13311 0.13637 0.21502 -0.013899 0.095591 -0.038616 -0.17997 -0.0035817 -0.25969 0.26038 -0.12519 -0.30557 -0.14169 0.16655 0.22584 -0.34913 0.084915 0.23088 -0.12455 0.059557 -0.33262 -0.12126 0.19637 -0.30828 -0.29983
psychiatry -0.30245 -0.0066261 -0.37299 0.17687 -0.22177 -0.14212 -0.15845 0.059008 0.6776 0.079293 0.3861 -0.16221 0.023831 0.082018 -0.058366 0.30677 0.015932 0.15559 0.32193 -0.46851 -0.41544 -0.076972 -0.5407 -0.12298 0.15769 0.19858 0.5482 0.087604 -0.11652 -0.54517 0.049418 -0.0089026 0.32001 0.24004 0.60018 0.20753 -0.75067 -0.48687 -0.33417 0.034104 0.013608 0.10881 0.14551 -0.061852 0.19988 -0.019158 0.20143 -0.051636 -0.14251 -0.23096 -0.066282 0.33407 -0.89749 0.27282 -0.24631 -0.62808 0.14316 -0.47419 0.38424 -0.5544 -0.40866 -0.28714 -0.25576 -0.29802 0.015408 -0.041041 0.018358 0.083235 0.069667 0.62388 -0.1387 0.18477 -0.62505 -0.07554 0.26016 -0.73547 0.31115 0.15443 0.29175 -0.16326 -0.65237 -0.45243 -0.10662 0.2411 -0.27763 -0.40617 0.019277 0.28447 0.22193 0.075945 -0.035133 -0.32452 0.17404 -0.36087 -0.076142 0.26219 0.16928 -0.34156 0.30666 -0.043432 0.043794 0.066059 0.019813 -0.013167 0.20492 -0.16597 -0.093725 0.093753 0.62404 0.13383 0.43929 0.42224 -0.32253 -0.028641 0.48159 0.12399 0.077834 0.32474 -0.43286 0.42177 0.36417 -0.35971 0.029574 -0.25809 0.24715 0.64563 -0.17171 -0.10618 -0.11068 0.50392 -0.093463 -0.0651 -0.097942 -0.25705 -0.56447 0.7669 -0.61142 0.41904 -0.031755 -0.18535 -1.0128 0.41305 0.1306 0.66319 0.45527 -0.45518 -0.68693 0.027333 -0.15679 -0.39709
asylum -0.5176 0.56231 -0.88119 0.23285 -0.18632 -0.62991 -0.34127 0.63757 -0.47155 -0.091844 -0.1615 0.06143 0.14711 0.29271 0.27477 0.68271 -0.12377 0.50309 -0.2565 0.084761 -0.61809 -0.20783 0.11905 0.097026 -0.068083 -0.02684 -0.092431 -0.24124 -0.23831 -0.39087 -0.074071 -0.33439 0.19679 -0.39025 -0.29097 0.216 -0.061143 0.059103 -0.12159 -0.35145 0.22737 -0.011015 0.52604 -0.52251 0.24927 0.1518 0.067803 0.30952 0.83027 0.14293 0.59834 0.025953 -0.39931 -0.32039 0.26322 0.32965 -0.36441 -0.091898 0.30336 -0.21613 -0.33948 -0.45725 -0.10161 -0.48114 0.34554 0.32394 0.30651 0.10246 -0.19128 0.47296 -0.15987 0.33826 -0.25743 -0.27904 -0.25332 -0.22149 0.0068095 -0.29426 0.39772 0.031169 -0.25428 0.40752 0.25539 0.13789 -0.14117 0.18555 -0.28707 -0.20382 0.092986 0.42854 0.16366 -0.58001 0.5498 -0.18957 0.56637 0.01927 0.088059 -0.91297 0.42718 0.602 -0.314 -0.1754 -0.14499 -0.18778 -0.15198 0.30001 -0.40391 0.50106 0.019654 0.17783 0.13505 0.80206 0.19065 0.071601 0.33872 -0.23877 0.30764 -0.15264 0.064436 0.14935 0.50981 0.13708 -0.3306 0.1432 -0.26438 0.17244 0.41518 -0.26372 0.092206 0.16275 -0.096882 -0.089114 0.30437 0.537 -0.037146 -0.55194 -0.37351 0.011748 0.46427 0.45779 -0.74443 0.061765 0.59702 0.21854 0.53294 0.3417 -0.35758 -0.13556 0.4265 0.20386
manslaughter 0.022553 0.1786 -0.56392 0.037734 0.012822 0.2506 -0.4277 0.16167 0.21208 0.15003 -0.21286 0.30006 0.40246 0.40396 -0.029317 0.28061 -0.0063656 -0.11578 -0.34555 0.0084315 -0.48854 0.060869 -0.24509 0.43605 0.085789 0.84635 0.55 0.44145 -0.17237 -0.055035 -0.11386 -0.2024 0.46036 0.42853 -0.24144 0.23251 -0.2693 -0.16092 -0.54234 -0.36568 0.47829 0.03024 0.30637 0.088397 -0.51085 0.1299 0.21548 -0.072234 0.13104 -0.063029 -0.1535 0.18025 -0.07224 0.2504 -0.018992 0.27482 -0.37155 -0.62514 0.17683 -0.0027433 0.091993 -0.47898 0.031221 0.1439 -0.21726 0.20236 0.44981 0.091134 -0.48829 0.047749 -0.43488 -0.37383 -0.06682 -0.018837 0.25469 -0.77678 -0.056333 -0.42416 -0.30102 0.26575 -0.25925 -0.47637 0.018218 -0.26521 -0.1371 -0.051399 0.0091805 0.16648 0.2283 0.17626 0.15674 0.20112 0.5171 -0.46757 0.23496 0.33403 0.40727 -0.10883 0.21012 -0.19518 0.34597 -0.6327 -0.21757 0.057896 0.57825 -0.037726 -0.20673 0.32186 0.47011 -0.49653 0.12197 0.2429 -0.027081 -0.25399 0.27072 0.21217 0.23839 0.20984 0.19729 -0.26587 0.24618 0.12328 0.064587 -0.71971 -0.16375 1.1248 0.65788 0.17487 -0.21047 0.029025 -1.0038 -0.52743 0.010218 -0.29528 -0.39414 0.37635 0.093469 0.2955 -0.27607 0.39956 -0.82617 0.16578 0.28283 -0.051579 0.069764 -0.70476 -1.0383 0.71328 0.046007 0.04232
music -0.082687 -0.031444 0.13905 -0.25026 0.45117 -0.17239 -0.42702 -0.013386 0.15157 0.12039 0.17261 0.1474 0.15854 0.30031 -0.40478 -0.0052777 -0.25964 -0.12856 0.14074 -0.012448 -0.010833 -0.20858 -0.39628 -0.2408 0.16573 0.15094 0.48666 -0.26449 0.14343 -0.20124 0.10985 0.5316 -0.30709 0.42098 -0.074385 0.62656 -0.24794 -0.019963 -0.20843 -0.19144 0.16262 0.047028 0.13397 0.12944 -0.41961 -0.15947 0.32774 -0.36318 0.10072 0.25609 0.18483 -0.14928 0.026424 0.44532 0.22311 -0.29513 -0.016227 -0.42124 0.45856 0.36622 -0.27383 0.63898 0.032277 -0.27756 0.14747 -0.042502 0.039869 0.66303 0.42295 0.19026 0.52822 0.35704 0.36781 0.0020711 0.0054551 -0.16109 -0.041208 -0.29629 0.48502 -0.22524 -0.12039 -0.0034522 0.031316 0.25585 0.19121 -0.23304 0.26141 -0.11152 -0.423 0.3194 0.60548 -0.30725 -0.005058 0.22189 0.52667 -0.45877 -0.16887 -0.19149 0.12784 -0.5011 -0.48288 0.062108 0.064885 0.088304 -0.039079 -0.071422 -0.28726 0.30068 0.24575 -0.52051 0.12802 0.23101 -0.13996 0.40484 0.075166 -0.11011 0.098543 -0.30447 -0.36756 0.11358 0.29822 -0.097688 0.30718 -0.17282 0.057618 -0.29902 0.060416 0.062136 -0.14591 0.57101 -0.19316 -0.40324 0.32683 -0.5387 -0.46998 -0.25929 -0.36096 0.29142 -0.49754 0.2434 -0.49814 0.002401 0.21624 -0.30177 0.061956 -0.22016 -0.25487 -0.29597 -0.10815 0.098752
record 0.40126 0.39282 -0.063092 -0.29465 0.25256 -0.13912 -0.11736 -0.15498 0.2041 -0.096852 -0.39452 -0.21072 0.36414 0.0895 0.25775 -0.11399 0.091093 0.23161 0.38084 -0.3719 -0.0081944 0.22974 0.052515 -0.11645 0.077166 -0.14774 -0.09221 -0.39458 -0.027172 -0.24335 0.22387 0.12012 0.19876 0.25622 -0.50534 0.097336 -0.068986 0.023374 0.17611 -0.25422 -0.13179 -0.12079 -0.10341 0.18689 -0.064147 -0.45009 0.14117 -0.18692 -0.58166 0.19969 0.18543 -0.30928 0.11377 0.20295 0.23657 -0.12114 0.18594 -0.28455 -0.042216 0.23471 0.12501 -0.46978 0.042249 -0.039409 0.084897 0.18865 0.13784 -0.52319 0.03514 0.2255 0.57062 0.37531 0.030121 -0.0037247 -0.42423 0.13795 -0.057491 -0.27351 0.52277 0.29907 -0.6063 0.079917 0.36792 0.073285 0.23925 -0.0070698 0.30526 0.33313 -0.20394 0.087628 0.017236 -0.053728 0.29216 0.039364 -0.079004 -0.33742 -0.078249 0.2936 0.10487 0.061188 -0.4601 -0.27836 -0.065108 -0.17324 0.16389 0.27942 -0.060387 0.079486 0.53627 0.042988 -0.40511 -0.29551 0.2845 -0.1086 0.28875 -0.039915 0.36785 0.046884 -0.59428 -0.25906 0.16852 0.003084 -0.098313 -0.24465 -0.19707 -0.1363 0.51539 0.081194 0.038746 0.50474 -0.21628 -0.040431 0.13081 -0.15812 -0.38633 -0.32576 -0.13863 0.2476 0.03769 0.20706 -0.44201 0.25254 0.13794 -0.038149 0.05505 0.044446 -0.3277 0.31502 0.27507 -0.085564
energy 0.021381 0.42766 0.11648 -0.19818 0.077062 -0.23426 0.058196 0.28058 0.16614 -0.10358 -0.18404 -0.07922 -0.15858 -0.064893 0.24918 0.16345 -0.36019 0.078016 -0.034294 -0.56305 -0.21001 0.25264 -0.5056 0.049009 0.35919 1.007 0.23965 -0.18549 -0.036259 -0.12695 -0.067876 -0.038273 -0.16525 0.23129 -0.13485 -0.15619 0.29045 0.042438 -0.2511 0.1057 0.25472 -0.3915 -0.017923 0.22533 -0.091683 -0.018229 -0.094337 -0.27666 -0.012363 0.033556 -0.28378 -0.12109 0.15602 0.20905 0.51569 -0.61801 0.017746 0.4417 0.056285 -0.021402 -0.36498 -0.31749 -0.0032965 -0.19977 0.50582 0.10664 -0.82282 -0.28568 0.017144 0.018703 -0.059128 0.33452 0.12303 -0.21308 -0.13939 0.089434 -0.0043956 -0.45325 0.12999 0.12194 -0.41357 0.26173 -0.050954 -0.019991 -0.082 -0.16278 0.18533 -0.015675 0.63489 0.0016049 0.045498 0.0068167 0.40064 0.034831 -0.072816 -0.58037 -0.42794 -7.4724E-4 -0.4885 0.304 -0.51518 -0.5099 -0.19742 0.26057 0.16135 -0.44617 0.051976 -0.15135 0.4204 0.015996 0.28898 0.11944 -0.13256 -0.46628 -0.19777 -0.02784 -0.34688 0.096284 -0.16197 0.40137 0.38426 -0.44396 0.088761 0.053596 -0.15173 -0.11196 -0.10183 0.18926 -0.22804 0.3799 0.035206 -0.12776 -0.25757 -0.19765 -0.2985 -0.067332 -0.5121 -0.018835 -0.24759 0.0073897 0.051034 -0.06423 0.69857 0.091539 0.4528 -0.0013265 -0.39415 -0.46554 -0.20362 0.28311
announcement -0.0366 0.072829 -0.39341 -0.020647 0.078938 -0.042337 0.013734 -0.33185 -0.12797 -0.3701 -0.019655 0.14125 0.63164 0.45178 -0.018145 0.41507 -0.13004 -0.072689 -0.3366 0.08544 0.3375 0.25697 -0.093458 0.09482 0.47058 0.1342 0.1064 0.11737 -0.021667 -0.10146 -0.27431 -0.041592 0.19731 0.13285 0.020283 -0.2257 0.15639 -0.29617 -0.11686 -0.17292 0.21847 -0.26792 0.026843 -0.3138 -0.094727 -0.26523 -0.25983 0.011736 -0.079037 0.4445 0.42713 -0.42862 -0.045168 0.17733 0.076072 -0.47235 -0.12018 -0.097222 0.12648 -0.20646 -0.28747 -0.064283 0.093094 -0.50936 0.36781 0.19725 0.12343 0.12497 -0.027893 -0.0025261 0.39344 0.20206 0.68601 -0.46631 -0.28908 0.2047 -0.18573 -0.35242 0.35693 0.23956 -0.21745 -0.13977 -0.24514 -0.0892 -0.34715 -0.034591 0.23645 0.15334 -0.24057 0.16644 0.044385 0.10897 0.14927 -0.21227 0.14928 -0.32582 -0.3577 0.36962 -0.020597 0.51819 0.36533 -0.077348 -0.16958 0.02489 -0.11133 0.38761 0.028898 0.2435 0.4128 0.12953 0.13146 0.018192 0.013485 0.24401 -0.16749 0.085184 0.028115 0.19847 0.22692 -0.027538 -0.23642 0.24502 -0.15218 0.26557 -0.37336 0.11695 0.19606 0.080417 0.25682 0.10751 0.085861 -0.015421 -0.39697 -0.31574 0.08494 0.1763 0.1286 -0.024171 -0.23312 0.078582 -0.063145 0.033852 -0.10121 -0.048298 0.32402 -0.25963 -0.24096 -0.016353 0.11567 -0.098702
mile 0.10662 0.27937 0.31721 0.14119 0.36581 0.0028988 0.011289 0.27152 -0.19239 0.081987 -0.57217 0.36633 0.16755 0.2915 0.15865 0.20004 0.14102 -0.05008 -0.29596 -0.069632 0.12738 0.10004 0.04025 -0.34087 -0.051384 -0.0094007 0.36771 -0.3473 -0.26221 0.0033792 -0.3463 -0.25516 0.24524 -0.16385 -0.89538 0.13668 -0.042435 0.17974 -0.028907 0.55145 0.065872 -0.099168 -0.19774 -0.38008 0.3265 0.043471 0.092414 -0.065846 -0.35495 0.21347 0.13143 -0.22687 -0.23335 0.27588 -0.037417 -0.011973 0.43067 -0.13624 -0.029726 -0.45079 -0.045086 -0.50626 -0.1674 -0.39475 0.4791 0.11365 0.27777 -0.14437 -0.43677 -0.13475 0.06177 0.17448 -0.33337 0.52991 -0.087025 -0.18068 0.104 -0.52721 0.21758 0.44906 0.079905 -0.31981 0.089967 0.49978 0.53275 0.59273 -0.038115 0.56543 0.018464 0.56207 0.25303 0.0072923 0.41686 -0.3697 0.24117 -0.030851 -0.46584 -0.084798 -0.48341 -0.22006 0.057605 -0.35831 0.087269 -0.1356 0.012477 0.04891 -0.44558 0.23102 0.16243 0.025238 0.11339 0.051263 0.27277 -0.080602 -0.19179 -0.30711 -0.45172 -0.010206 0.10304 -0.23385 0.6407 -0.43289 0.35726 -0.40352 -0.48615 0.14038 0.54705 -0.36661 0.071182 -0.070555 -0.24376 0.14176 0.50037 -0.25615 0.28914 -0.17153 -0.085182 -0.34456 -0.15939 -0.67652 -0.4216 -0.40112 0.28304 -0.59581 0.41124 -0.15038 -0.21096 0.2412 -0.49972 0.1456
airport 0.10292 -0.044402 -0.18001 -0.093716 0.060807 0.25272 0.10295 0.2835 0.2443 -0.054796 -0.098669 0.7463 0.39805 0.062125 -0.013766 0.31989 0.11619 -0.34265 0.56699 0.38063 -0.31754 -0.21622 -0.31016 0.22457 -0.28854 0.10108 -0.27209 0.21146 -0.064309 -0.16085 -0.41646 -0.22162 0.15157 -0.2501 -0.15172 0.10754 0.2527 -0.21198 -1.0953 0.001384 0.58576 -0.33579 0.17465 -0.33485 0.12509 -0.11141 -0.10514 0.17316 0.28957 0.054054 0.24157 -0.35398 -0.3615 0.004975 0.21524 0.14857 -0.16692 -0.19401 -0.2225 -0.3623 -0.34611 0.1722 -0.40379 -0.36454 0.32245 0.28315 -0.05024 0.14033 -0.090803 -0.14353 -0.013796 0.50932 -0.08979 -0.12793 -0.021405 -0.19929 0.23005 -0.30186 0.25476 0.41601 0.2741 -0.48622 -0.072556 -0.034153 0.069117 0.33821 0.12894 0.20757 0.58655 0.65072 0.0016661 -0.38962 -0.014684 0.30559 -0.12586 0.16415 0.07994 -0.144 -0.32096 -0.23621 -0.11686 -0.54052 -0.41481 -0.57313 -0.72145 0.32206 -0.76883 0.019539 0.26373 -0.064608 0.24017 0.0075876 0.13742 -0.47802 0.21009 -0.062677 0.02323 -0.31917 -0.072738 -0.2427 0.07964 0.1371 -0.39386 0.15498 -0.40923 -0.024214 0.010553 -0.20042 0.10647 0.040651 -0.13697 -0.2111 0.39793 -0.16281 -0.31592 -0.08545 -0.34844 0.024063 -0.032734 -0.22438 -0.46883 -0.15044 0.35841 -0.49494 0.42005 -0.043973 -0.55458 0.23467 -0.095226 0.77481
population -0.048286 -0.11102 -0.47555 0.10976 0.10425 0.12737 0.0058384 0.082105 -0.38989 0.23363 0.10733 -0.12861 -0.15102 0.1129 0.1666 0.53168 0.29376 -0.1118 0.17409 -0.24565 -0.11989 -0.13783 0.30486 0.35805 -0.32707 0.32156 0.63947 0.066479 -0.31306 0.012952 0.078946 0.082116 0.039423 0.13894 -0.25344 0.17599 -0.24795 0.18101 -0.43034 -0.04332 0.13795 -0.21161 0.16223 -0.12692 0.088189 -0.062718 -0.14572 0.29421 0.28223 -0.27489 -0.23645 -0.095259 -0.3744 -0.21214 -0.085443 -0.71632 0.52995 -0.04927 0.26028 -0.21745 -0.43286 -0.18137 0.056278 -0.30974 0.221 0.20413 -0.34819 -0.075668 -0.2941 0.024701 -0.010397 0.16738 -0.41758 -0.11008 0.020507 0.093805 0.28485 -0.1773 0.15404 0.19488 -0.54424 0.070571 0.06528 6.513E-4 0.37454 -0.053151 0.010754 0.56413 -0.075647 0.4037 0.12792 -0.35883 0.87519 0.19388 0.094423 -0.15588 -0.36317 -0.15601 -0.030036 0.084948 -0.36792 -0.16556 -0.37512 -0.2267 0.056931 0.11743 -0.058488 0.50836 0.36167 0.075249 -0.090149 0.25002 0.53298 0.52168 0.30947 -0.21604 0.19587 -0.39573 -0.060231 0.35453 0.30312 -0.5087 0.40644 -0.069718 0.040885 -0.1041 0.39734 -0.41563 -0.51709 -0.11014 -0.08376 0.2722 -0.0081757 0.32089 -0.24778 -0.14587 -0.060265 -0.35077 0.20291 0.2572 0.05539 -0.38303 0.19778 -0.051857 -0.16942 0.16244 -0.46506 -0.10173 -0.32947 0.22593
planning 0.32106 -0.065125 -0.22228 -0.13306 0.12686 -0.24278 0.018074 0.22937 0.2379 -0.23609 0.20552 0.10287 0.21953 0.28493 0.058166 0.11595 0.27124 -0.057905 -0.085208 -0.14161 0.08684 0.20354 0.034605 -0.032961 0.20892 0.31939 -0.15978 -0.048936 -0.33118 -0.069406 -0.31471 8.9491E-4 -0.017951 -0.0010208 0.0091315 0.10966 0.0031634 0.02466 -0.3668 0.18323 0.089468 0.074953 0.51366 -0.59218 0.10721 -0.019992 -0.099038 0.065025 0.32542 0.12105 -0.2179 -0.1974 0.026086 -0.14404 -0.078313 -0.64153 -0.42841 0.10112 -0.22893 0.066801 -0.48569 -0.047485 -0.035361 -0.041316 -0.0047071 -0.14393 0.13812 -0.21088 -0.039216 0.033738 0.21651 0.13334 0.14007 -0.2365 -0.12396 0.10333 -0.082501 -0.3676 -0.085776 0.003677 -0.11348 -0.11516 -0.15841 -0.14714 -0.25333 -6.8048E-4 -0.02209 -0.24099 0.2758 0.14351 0.41871 -0.069467 0.4935 0.034406 0.60025 -0.19157 -0.058893 0.021418 -0.10852 -0.045946 -0.092413 0.0083083 -0.17614 -0.091933 -0.26062 0.3115 -0.10141 0.063203 0.35529 -0.32522 0.34136 0.013806 0.3424 0.16198 -0.098417 -0.18426 -0.1919 -0.045038 -0.070918 -0.036014 -0.10984 -0.12817 -0.41567 -0.064003 -0.27375 0.33655 0.043576 -0.14915 0.089174 0.043575 -0.14653 -0.49493 -0.16887 -0.11124 0.11417 -0.21961 -0.3393 0.096833 0.07134 0.17279 -0.51588 0.018527 0.040112 0.058524 -0.068238 -0.2314 -0.0574 -0.022409 0.018765 -0.26883
canyon -0.18593 -0.17907 0.19539 -0.13752 -0.02917 0.18782 -0.093182 0.35546 0.34619 0.27617 0.11268 -0.0058154 -0.15075 -0.033632 0.0043308 0.4561 -0.028542 0.15551 -0.60603 0.18562 0.41306 0.19452 -0.23895 0.24155 -0.55537 -0.28309 0.53346 -0.16218 -0.32011 -0.14768 -0.038376 -0.19463 0.18002 -0.21181 -0.69602 0.27873 0.16575 0.29057 -0.52566 -0.46325 0.0065811 0.3195 0.18985 -0.062133 -0.19955 -0.23479 0.64806 0.1264 -0.13615 0.28875 0.38407 -0.23566 0.060129 0.080859 0.23291 -0.27781 0.059839 -0.12967 -0.269 -0.23541 -0.34362 -0.40942 0.016072 -0.44207 0.76761 0.23311 -0.086002 -0.10943 -0.35213 -0.1871 0.2392 0.36107 -0.27962 0.26966 0.25666 0.13628 -0.080009 0.16525 0.54358 0.24988 -0.18947 -0.17265 0.3305 0.33724 0.4304 0.1459 -0.053643 0.1003 0.1086 0.20112 0.016173 0.59267 0.36527 -0.077062 0.20699 0.047038 -0.077676 0.16911 -0.25225 -0.13201 -0.61279 -0.34759 0.2079 -0.29915 -0.053655 -0.3287 -0.042436 -0.174 0.24054 0.55694 -0.046095 0.49274 0.076608 -0.20764 -0.21837 0.04953 -0.39404 0.26014 -0.020354 -0.095357 0.84604 0.044059 0.55254 -0.25591 0.0018709 0.24456 0.24071 -0.42045 0.40466 0.14128 -0.56328 -0.44005 0.96562 -0.52257 -0.27096 -0.25634 0.17596 0.19132 -0.18335 -0.51906 -0.74304 -0.50539 -0.12267 -0.44842 0.26323 0.28605 -0.13117 -0.039012 -0.31434 0.19679
delay -0.092633 0.1992 -0.6329 -0.68798 -0.25417 -0.015291 -0.18448 0.057909 -0.094813 -0.43552 0.29298 -0.19459 0.41661 0.26434 0.24122 0.097363 0.12703 -0.18339 -0.51799 0.035624 -0.070498 0.22178 0.059324 -0.014045 0.2846 0.55218 -0.21336 8.7838E-4 -0.30059 -0.24017 -0.41093 0.21904 0.2747 -0.40596 0.028264 0.15018 -0.41188 -0.028294 -0.13133 -0.11045 0.24445 -0.10113 0.39417 -0.12894 0.021143 -0.41877 -0.34347 -0.19113 -0.040314 0.038223 -0.051205 -0.14832 -0.16495 -0.37469 0.32991 0.042843 0.10945 0.10007 -0.11629 0.075133 -0.59077 0.11706 -0.10536 -0.19575 0.62902 0.26981 0.12004 -0.3268 -0.010336 -0.25074 0.053442 0.033986 0.16702 -0.35614 -0.24474 -0.014859 0.060489 -0.32215 -0.19212 0.0066807 -0.072092 -0.4393 -0.22346 0.25252 -0.051899 0.068193 0.18019 -0.044065 0.26696 -0.033099 -0.16638 -0.38908 0.2088 -0.18735 -0.17709 0.26027 -0.69503 0.32845 0.096134 0.14543 -0.071775 -0.24261 -0.54697 0.025173 -0.44801 0.33999 -0.027052 0.21174 -0.032868 0.075138 -0.037523 -0.094492 -0.037691 -0.012879 -0.080246 -0.22098 -0.059286 -0.060977 -0.18433 0.18663 -0.028967 0.097501 0.027746 -0.11203 -0.28468 0.29681 0.2024 -0.32161 -0.19185 0.019606 -0.32887 -0.25012 -0.078272 -0.58181 0.33341 0.2143 -0.0042298 -0.052929 -0.0043556 0.48926 -0.098995 0.67893 0.10698 -0.057452 0.13142 -0.20603 -0.52242 0.05526 0.3288 -0.3562
size 0.20069 -0.012855 0.099849 0.23129 0.26673 -0.020489 -0.038568 0.099538 -0.22498 -0.24754 0.3907 0.057002 -0.10638 -0.020645 0.27705 -0.041635 0.52443 0.15079 -0.080722 -0.11048 0.069623 0.26585 0.086614 -0.05672 0.19394 0.57251 0.23762 -0.32709 -0.27066 -0.089597 0.0059304 0.22226 0.026598 -0.061423 -0.017314 -0.24312 0.28282 -0.1784 -0.40116 0.050622 0.14159 -0.11446 -0.066127 -0.3379 -0.086809 0.046316 -0.1856 0.3619 -0.17664 0.13196 0.09633 -0.13651 -0.65423 -0.038377 -0.31087 -0.75017 0.54782 0.14345 -0.23858 -0.17209 -0.25314 -0.51351 0.2428 -0.069504 0.33119 0.29071 -0.32676 -0.090403 -0.17743 -0.15443 0.47568 0.03399 -0.10734 -0.098419 -0.11181 -0.062615 0.59271 0.2196 0.025961 0.13944 -0.3464 0.13012 0.069501 -0.020435 0.043981 -0.010345 0.088812 0.045884 0.32011 0.069441 -0.20223 0.056695 0.5529 0.4138 0.36107 -0.21452 -0.351 0.22452 0.02069 -0.16294 0.28106 -0.15701 0.13515 -0.13225 -0.39563 0.10823 -0.53871 0.14508 0.094743 -0.14248 -0.017853 0.12674 -0.27522 0.32752 0.034012 -0.14136 0.1719 -0.27223 -0.16612 -0.16108 0.13803 -0.21992 -0.28921 -0.24019 0.078546 0.25089 0.34752 0.24515 -0.18944 0.12683 -0.53921 0.086506 0.21258 -0.45687 -0.39036 0.073014 0.19185 -0.075962 -0.027411 0.23791 0.127 -0.27746 -0.02624 -0.29517 0.0036035 0.14712 -0.075966 0.01258 -0.44668 0.19407
peace -0.5115 0.093202 -0.2071 0.10038 -0.19862 0.2845 -0.49114 0.20726 0.47266 0.10744 0.30256 -0.07185 0.36585 0.48582 0.36983 0.58343 0.016339 -0.35845 0.03961 0.29066 -0.51007 0.26817 0.011133 0.23757 0.37786 0.51522 0.65168 -0.13341 -0.1681 -0.32788 0.22095 -0.028352 0.15551 0.57668 0.026796 0.72096 -0.47095 0.13299 -1.1347 -0.38986 0.46426 0.0075592 0.61585 -0.39397 -0.39047 0.22685 0.036144 -0.047003 -0.33939 -0.1656 -0.21892 -0.30274 0.41649 -0.3502 -0.0060826 0.3369 -0.14469 -0.18397 0.41888 -0.53086 0.16343 -0.011236 0.083225 -0.17122 0.25694 0.013246 0.24582 -0.26317 -0.047463 0.25079 0.27672 0.42553 0.82849 -0.17104 -0.17651 -0.10202 -0.25998 -0.91513 0.53799 0.08305 -0.24802 -0.07328 0.088522 0.58423 0.29571 -0.033862 0.026635 0.16307 0.29936 0.15419 -0.25073 0.26456 -0.040563 0.12356 -0.012637 -0.75369 -0.10579 0.015882 -0.017591 0.26047 -0.095854 -0.14584 -0.14158 -0.68033 -0.72769 0.06441 -0.01885 0.18714 0.3711 0.36595 -0.015261 0.47725 0.022005 -0.048223 -0.081133 -0.20071 -0.012906 0.30048 0.10462 0.36741 0.23149 -0.42759 -0.10832 0.40112 0.19236 0.24312 -0.036997 -0.032196 -0.011061 0.35053 0.25974 0.33443 0.17959 0.67878 0.062018 -0.26863 0.23805 -0.13603 -0.30589 0.054367 -0.47029 -0.23701 -0.20172 -0.26624 0.20352 -0.039575 0.031915 0.1701 0.060724 -0.14396
science -0.044229 0.30829 -0.071872 0.10177 -0.21849 -0.075344 -0.58119 0.079754 0.32316 -0.50791 0.37262 -0.14678 0.46104 -0.084163 0.25787 0.4971 -0.16673 0.063061 -0.29541 -0.32802 -0.442 0.094082 -0.31306 -0.17943 0.017359 0.54744 0.12912 -0.28387 -0.212 -0.36792 -0.287 -0.028339 0.095928 0.41093 0.4006 0.17635 -0.15039 -0.27196 -0.14041 0.18343 0.34708 0.13698 -0.28778 0.085801 0.21942 -0.19113 -0.020751 0.027572 -0.0019526 -0.10356 -0.047946 0.050817 -0.55251 0.25492 -0.011729 -0.32549 0.04372 -0.064145 0.302 -0.37155 -0.33048 -0.23885 -0.23031 0.019926 0.44051 0.18393 0.097855 -0.023289 0.13554 0.49806 -0.4279 0.37677 -0.035067 -0.18901 0.12562 0.23015 0.22156 -0.024578 0.45193 0.051258 -0.65181 -0.19153 0.051344 -0.19787 0.43189 -0.21704 -0.26974 -0.18194 0.078927 0.30615 -0.12719 -0.092773 0.48981 -0.24473 -0.056128 0.070208 -0.24544 0.12193 -0.22643 -0.54081 -0.33192 0.22894 0.13254 0.31011 -0.13569 -0.37271 0.28804 0.027635 0.3334 -0.13173 0.29842 0.51232 -0.013622 0.12977 -0.0028079 -0.51709 -0.28971 0.047311 -0.026215 0.23129 0.28635 0.25801 -0.10876 0.016783 0.29792 -0.14841 -0.34023 0.0042515 0.11329 0.70211 -0.016427 0.077568 -0.091997 -0.17983 -0.11093 0.22514 -0.29814 0.22294 -0.17164 -0.14034 -0.60314 -0.13714 -0.16733 0.19762 0.050486 -0.46697 -0.47185 -0.58189 -0.13022 -0.40288
dawn -0.20019 -0.024531 0.16347 0.029732 -0.0078194 0.26336 -0.15489 0.25629 -0.1596 0.42722 -0.021223 -0.085292 0.040349 0.35836 -0.25667 0.53832 0.49297 -0.056721 -0.2706 -0.26909 -0.22348 0.31612 -0.18121 0.17246 0.13794 0.11258 0.45558 0.12033 -0.38919 0.24959 -0.35255 -0.18281 0.12553 0.3868 -0.94643 0.39907 0.15425 -0.20232 -0.30978 0.010518 0.31288 0.29182 0.55954 -0.23045 0.037316 -0.021639 0.13701 -0.14278 -0.20055 0.15265 0.3026 -0.0235 -0.14222 -0.20172 0.31415 -0.18616 0.11523 -0.25416 0.22876 -0.51032 0.11069 -0.10647 -0.03372 -0.40045 0.17097 -0.4569 0.14729 0.26231 0.17961 -0.11612 0.18911 0.3997 -0.054564 0.07096 -0.34537 0.17485 0.20768 -0.093375 0.15851 0.18132 0.28503 -0.67127 -0.052406 0.32148 -0.082827 0.51518 0.19268 -0.14572 -0.033707 0.59898 -0.35054 -0.081986 0.13474 0.20181 -0.027175 -0.040779 -0.26807 -0.35228 -0.4372 -0.098441 -0.18794 -0.011892 -0.29929 -0.044928 -0.098441 0.0086225 -0.29649 0.15184 0.49327 -0.061673 0.055415 -0.10541 0.034479 0.18717 -0.41187 0.36139 -0.22213 -0.17301 0.1213 -0.49124 0.17767 0.57582 -0.010169 -0.26244 -0.43207 0.22176 0.41586 -0.12827 0.072684 0.026987 -0.064432 0.0085493 0.23673 0.1638 0.37047 -0.39241 0.02297 0.13491 -0.57133 -0.11838 -0.40777 -0.10845 0.096006 0.16452 0.16853 0.17131 -0.10902 -0.0078159 -0.31521 0.47902
brother -0.06584 -0.043188 -0.39828 -0.024499 -0.26168 0.34903 -0.51843 -0.5169 0.040538 0.14505 0.062406 0.044544 0.2966 0.34602 0.16412 0.4405 -0.02032 -0.0098495 -0.21269 0.28885 0.13417 0.28551 0.02144 -0.07578 0.091044 0.61228 0.17801 -0.31635 0.017251 0.041033 -0.47522 -0.24369 -0.0070057 -0.012986 -0.5536 -0.11482 0.12391 -0.50466 -0.053248 -0.055869 0.27119 -0.20617 0.4907 -0.1289 -0.27811 -0.041253 -0.20156 -0.12084 0.054273 0.13791 0.14999 0.012649 -0.55181 0.072201 0.29734 0.20424 0.030591 -0.22541 0.25635 -0.050818 -0.46702 -0.018583 0.39103 0.31519 -0.088171 -0.0027139 0.037158 -0.096989 -0.17283 0.125 -0.041135 -0.11794 0.0051544 -0.17871 -0.12385 -0.40921 0.0048772 -0.15792 -0.090137 0.15673 0.20189 -0.25719 -0.38389 -0.076747 -0.086978 0.11812 -0.22484 0.14634 -0.55414 0.2689 0.067111 -0.16962 -0.27276 -0.056644 0.18981 -0.25966 0.14794 -0.2336 0.51929 -0.40072 -0.27112 -0.30883 -0.22679 -0.52598 0.51127 -0.22246 0.0036593 0.11972 0.51886 -0.050043 0.24427 0.035871 0.15708 -0.0099754 0.22468 0.21645 0.22639 0.2482 -0.43388 -3.843E-4 0.16618 -0.50879 -0.28426 0.18855 -0.27007 -0.01386 0.21366 -0.11322 -0.097544 -0.14526 -0.15942 -0.67709 0.0042009 0.21642 -0.039629 -0.081728 -0.47911 0.1307 -0.61437 0.20433 -0.70876 -0.17384 0.10676 -0.13439 0.41034 0.091076 -0.22576 0.54934 -0.013557 0.017999
wine -0.49134 -0.16111 0.10399 -0.094688 -0.40589 0.051911 -0.26554 0.37433 0.044196 0.018268 0.17194 0.29977 0.25201 -0.32651 -0.37155 0.22378 -0.060711 -0.22896 0.49578 -0.075528 -0.24572 -0.30523 0.27709 -0.20198 0.46058 0.31925 -0.39877 -0.17553 0.56579 -0.079734 0.037345 -0.14736 -0.044501 0.37367 0.23246 0.51132 0.20673 -0.035591 -0.40683 -0.49607 -0.080161 0.019338 0.32798 0.6585 -0.28549 0.016019 0.14517 -0.010049 0.1352 -0.15537 0.01769 -0.067281 -0.4588 0.28687 0.1189 -0.35241 0.18622 -0.28208 0.15642 -0.01511 -0.27194 -0.41024 -0.099737 -0.17507 0.069794 -0.025657 -0.011904 0.074716 -0.24491 -0.56999 0.046892 1.057 -0.25923 0.18976 -0.070704 -0.13862 -0.19561 -0.15846 0.20775 0.19534 -0.044994 0.099129 0.34616 0.01048 -0.24168 -0.28828 0.20787 -0.23104 0.1966 0.39616 0.021849 0.35424 -0.26189 0.43961 0.016687 -0.55875 -0.29831 0.12414 -0.40371 -0.083397 -0.64139 0.048421 -0.20578 0.14112 -0.14192 0.14769 -0.20342 0.3288 0.25124 -0.54158 -0.015069 0.34989 -0.21641 0.12545 0.099892 0.13808 -0.23276 0.35029 -0.085858 -0.072382 0.53398 -0.25197 0.32818 0.060673 0.05226 0.11817 0.72315 -0.28525 -0.40975 -0.004188 -0.2448 -0.44563 0.20861 -0.91089 -0.26234 0.1778 -0.65115 -0.56121 -0.4314 0.21859 -0.013057 -0.17985 0.21404 -0.17192 0.13628 -0.16222 -0.049424 0.033437 -0.61393 -0.027757
object -0.26212 0.077511 -0.20192 -0.17928 -0.30883 -0.24891 -0.40796 0.33323 -0.089047 -0.2565 0.22832 -0.25947 0.21249 0.28153 0.60425 0.37476 0.056326 -0.17076 0.023453 0.17086 0.10493 0.25855 -0.17375 -0.15088 -0.032114 0.45462 0.43583 -0.43028 -0.54806 -0.28023 0.087479 -0.10251 -0.14343 -0.13931 -0.27491 0.0733 0.086617 -0.1553 -0.15886 0.030725 0.32325 0.0049518 -0.083403 0.10373 -0.25375 -0.25576 0.025741 0.04263 0.014766 0.14647 0.30533 -0.052709 -0.28868 0.031405 0.32733 -0.34396 0.1763 -0.47399 -0.094945 -0.24664 -0.033619 -0.10957 -0.13322 -0.12184 0.10297 0.14074 -5.6583E-4 -0.32444 0.010373 0.083001 0.028993 0.2158 -0.33366 0.31232 0.52508 0.12516 0.029459 -0.10484 0.10444 0.10676 0.061566 0.09025 0.09068 0.31302 0.040297 -0.017132 -0.12224 -0.25145 -0.038442 0.025264 0.079087 0.54626 0.26098 -0.23444 0.22214 -0.10893 -0.054646 0.053512 0.14255 -0.22243 0.28407 -0.0053205 0.17665 0.088847 -0.2407 -0.086168 -0.67717 0.094596 0.029119 -0.12889 -0.092898 0.3212 -0.043632 0.16442 -0.087508 -0.09164 -0.43772 0.013649 -0.21872 0.13329 0.36918 0.26703 0.083416 -0.05363 -0.079638 0.12155 0.063182 0.40699 0.0053679 0.32094 -0.21756 0.04041 0.018873 -0.3158 -0.052284 0.0076795 0.15153 -0.022489 -0.07083 -0.060678 -0.14516 -0.19744 0.19537 -0.14951 0.02371 0.14019 -0.54845 -0.048791 -0.26285 -0.14646
attitude -0.43883 0.15871 -0.19215 -0.24514 -0.40042 0.025757 -0.81083 0.2394 0.14662 0.031455 -0.038194 -0.079252 0.32453 -0.14374 0.31089 0.42854 -0.18902 0.16425 -0.1119 -0.51618 -0.020036 -0.015309 -0.36484 0.34253 0.31017 0.55932 0.32622 -0.44497 -0.18777 -0.45008 -0.032373 0.1576 0.34469 0.38263 -0.083922 0.0536 0.11126 -0.088811 -0.11721 -0.0070693 0.24595 -0.10849 0.16726 -0.35758 0.077552 0.31705 0.045012 0.00831 0.31826 0.10858 0.10829 -0.13986 -0.38485 0.04572 -0.03122 -0.39246 -0.0048606 -0.18939 0.01638 0.37942 0.030726 0.2133 -0.03803 -0.25223 0.12258 0.020794 -0.49446 0.22103 -0.16984 -0.18574 0.58333 0.46994 -0.38095 -0.11626 -0.45282 0.30829 0.048175 0.0501 -0.12534 0.15785 -0.55447 0.59161 0.21689 0.19662 0.12955 0.13223 0.12435 -0.13952 0.085513 0.036906 0.1105 -0.14633 -0.22165 -0.17002 0.22817 -0.10357 0.11974 -0.21547 0.35632 -0.054285 0.32746 -0.073085 -0.27407 -0.036628 -0.29274 -0.0035501 -0.46749 0.25946 0.39407 -0.0016107 0.67929 0.19452 -0.050056 0.34522 0.29535 0.17393 0.051135 -0.22521 -0.036546 -0.037766 0.03695 -0.16212 0.06593 -0.057989 -0.24465 0.080546 0.10633 0.22738 0.080431 0.10146 0.12978 0.1239 -0.047834 0.45482 -0.36083 -0.048842 -0.010905 -0.35221 0.038496 -0.25836 -0.40251 0.015364 -0.0709 0.16265 -0.092369 -0.10833 -0.51274 -0.11492 0.022413 0.21791
treatment -0.15619 -0.16891 -0.5167 0.18968 -0.32358 -0.39894 0.22178 0.39767 -0.057551 -0.24454 0.10415 0.14106 0.0244 0.011012 0.044794 0.36311 -0.019717 0.28088 -0.10428 0.034906 0.051694 0.18207 -0.48731 0.17942 0.44588 0.24559 0.023387 0.16705 -0.3061 -0.22599 0.22832 0.25337 0.58337 -0.54165 0.29881 0.2426 -0.25551 0.24677 -0.26649 0.19698 -0.12905 -0.19879 0.15918 -0.27713 0.21806 0.0082857 0.13401 -0.01044 0.32004 -0.10847 -0.20805 0.22801 -0.31587 0.28432 0.044683 -0.21712 -0.10824 0.0070834 0.29555 -0.29192 -0.062431 0.01582 -0.17849 -0.44437 0.22867 0.12767 -0.15609 0.21464 -0.16773 -0.03587 0.091856 0.23011 -0.26766 0.068244 0.1316 -0.30473 -0.0047052 0.060107 0.1781 -0.12921 -0.063723 -0.14833 -0.15178 -0.14018 -0.14501 0.096338 0.14837 -0.12012 0.063965 0.15251 0.11989 -0.23695 -0.085779 -0.3387 -0.129 0.23997 -0.18594 -0.38751 0.11215 0.75558 -0.097791 -0.30263 -0.038751 -0.095759 -0.13984 0.21217 -0.10091 -0.067947 0.79791 0.13477 0.14827 0.18639 0.13331 0.03022 -0.033766 -0.044566 0.30791 0.26838 0.16545 0.06469 0.73294 -0.64189 -0.0060009 -0.42245 0.0257 -0.011125 0.37484 -0.31976 -0.28794 0.2702 -0.40527 -0.065762 -0.23344 -0.30211 0.11951 -0.0084333 -0.31517 -0.096785 0.30146 0.11549 -0.40525 0.12805 0.52621 0.17881 0.14648 -0.49379 -0.43452 -0.053039 0.15929 -0.10282
flight 0.45128 -0.19776 -0.3435 0.012012 -0.36295 0.45811 -0.54676 0.19232 0.031052 -0.09465 0.098222 0.63291 0.39812 0.087867 0.075392 0.23981 0.17113 -0.095802 -0.02808 0.36862 -0.18903 0.18051 -0.11102 0.082305 -0.57034 0.13897 -0.36401 -0.099392 -0.11824 -0.08664 -0.39125 -0.10679 0.3878 0.42906 -0.23083 0.23871 0.4928 -0.13332 -0.73411 0.15009 0.80966 -0.35852 0.075527 -0.29717 0.32923 -0.28362 -0.45212 0.1694 0.19181 0.1323 0.11314 -0.041112 -0.35192 0.0099043 0.38237 0.23511 -0.012607 -0.28032 -0.30837 0.020688 -0.32921 0.014645 -0.19953 -0.17837 0.33532 0.075464 -0.050144 -0.020269 -0.026288 -0.16178 0.18829 0.34509 -0.02385 -0.15606 -0.094734 0.077273 0.30906 0.19335 -0.02264 0.27265 -0.085936 -0.68008 -0.14453 -0.13411 -0.082774 0.10711 0.20085 0.061753 0.33363 0.72319 0.041491 -0.57325 -0.13266 0.17403 -0.60183 0.0293 -0.60525 -0.22507 0.024936 -0.27551 0.042528 -0.10063 -0.22102 -0.2655 -0.36422 0.47434 -0.93365 0.097803 0.28461 0.14618 0.15152 0.045048 0.090212 -0.32584 0.19772 -0.47438 -0.060662 0.046579 -0.36485 -0.2959 0.31458 0.10802 0.012541 0.25832 -0.048945 0.31711 -0.11765 -0.34012 -0.3403 0.097276 -0.1344 -0.17699 0.18693 -0.53419 -0.44197 0.015596 -0.016994 0.20147 0.14574 -0.19479 -0.40755 -0.13902 0.099485 -0.56545 0.50485 0.081285 -0.64206 0.23745 0.12282 0.1116
forest -0.087678 -0.46219 0.19944 -0.12981 0.049377 0.11128 0.019 0.54333 -0.040346 0.0446 -0.12455 0.55629 0.013949 0.35834 0.021064 0.32432 -0.15045 -0.3919 -0.10469 -0.50553 0.19895 -0.072689 0.20735 0.53599 -0.38339 0.26494 0.36963 -0.55579 -0.040388 -0.012622 -0.35565 -0.15444 -0.036939 -0.066528 -0.32212 0.19733 -0.082511 0.085693 -0.35891 -0.059248 0.15333 0.079845 0.50073 -0.30127 -0.20244 -0.14521 0.11195 -0.047665 0.19255 -0.04105 0.37176 -0.02161 0.26921 -0.26483 0.23327 -0.62987 0.49453 -0.076661 0.079286 0.035063 -0.33772 -0.46115 -0.014949 -0.1592 0.86512 0.18282 -0.090667 -0.50989 -0.018659 0.0076812 0.13228 0.46306 -0.01549 0.16147 0.11753 -0.086052 0.0984 -0.14888 0.22892 -0.28595 0.0049989 -0.39577 0.25689 0.33107 0.036628 -0.062475 -0.30893 0.15033 0.35739 0.35364 -0.23335 0.40669 0.56475 0.21223 0.21036 -0.2569 0.30577 0.4298 -0.25907 -0.13801 -0.50322 -0.20329 -0.071081 0.099344 0.2735 -0.069072 0.085338 0.07998 0.35738 0.22515 0.0060792 0.39633 0.41831 0.090448 -0.16503 -0.27877 -0.2794 0.16146 0.38369 0.16738 0.69633 -0.2413 0.38294 -0.51459 0.2325 -0.18694 0.020101 -0.15612 -0.64296 0.42128 -0.53699 -0.011892 0.57542 0.031384 -0.056859 -0.64303 -0.074728 0.47968 -0.35862 -0.17381 -0.57591 -0.59126 0.0078601 -0.15929 0.37787 0.13219 -0.44665 -0.051719 -0.16438 0.17621
abuse 0.23458 0.38026 -0.68506 0.054212 -0.21223 -0.41517 -0.54507 -0.14316 0.14151 -0.024923 -0.31554 -0.17828 0.027054 0.014043 -0.0047158 0.20334 -0.10976 0.50624 0.081478 -0.030988 0.016788 0.063251 -0.57398 0.41988 -0.047955 0.61596 0.42596 -0.079657 0.5326 -0.29068 0.24739 0.1909 0.38984 -0.15304 -0.75876 0.44163 -0.48982 0.33094 -0.37646 0.24168 0.069716 0.14944 0.10411 -0.18646 -0.4295 -0.17241 -0.048129 0.31359 0.32411 -0.08527 0.12115 -0.13442 -0.24361 -0.26907 -0.19016 0.011869 0.11307 -0.22472 0.095445 -0.33345 -0.19061 0.21898 0.2166 -0.30578 -0.28247 0.20206 0.3474 0.42967 -0.085006 -0.11495 -0.018543 -0.025505 0.029649 -0.24747 0.056822 -0.42795 0.22416 -0.10784 -0.0052754 0.14808 -0.37847 -0.098333 0.24657 -0.113 -0.60614 -0.18707 -0.38775 -0.18784 -0.14852 -0.04456 0.1695 -0.10361 0.37301 0.31614 -0.087395 0.32446 0.012633 -0.32586 0.39465 0.37622 0.18334 0.079499 -0.36091 -0.297 -0.10054 -0.031831 0.0025772 0.18087 0.52045 -0.32337 0.15977 0.69414 0.022834 -0.17916 0.30558 0.36981 0.52522 0.63016 -0.2227 0.14154 0.17257 -0.29142 0.073983 -0.081061 0.16304 0.29593 0.26529 -0.34843 -0.27276 0.38828 -0.39546 0.18238 -0.15467 -0.051668 -0.22226 0.12587 -0.35872 -0.1103 -0.57166 -0.2158 -0.29818 0.0015501 0.65258 -0.21072 0.18568 -0.41703 -0.69458 -0.095596 -0.11064 0.20387
criterion -0.28409 -0.074634 -0.50573 -0.053357 -0.24751 -0.17554 0.06823 -0.070322 0.38216 -0.12726 -0.095412 -0.037225 0.19946 0.57412 0.49882 0.23465 0.14043 0.046432 -0.075877 -0.49763 -0.24642 0.10037 0.13958 -0.023063 -0.028809 0.3112 -0.20585 -3.9963E-4 -0.075963 -0.26022 -0.22203 0.18478 0.057252 0.12976 0.28655 0.054552 -0.11782 -0.15429 -0.3692 0.27767 -0.023324 -0.10638 0.0048548 -0.011819 0.051543 -0.18455 -0.07153 -0.0096328 -0.15673 0.034459 -0.076475 -0.11466 -0.47597 0.41326 -0.02 -0.16183 0.021274 -0.25913 0.18192 -0.01291 -0.12938 -0.34946 -0.15539 -0.074368 -0.0050093 0.33363 -0.055741 0.029045 0.028763 -0.068459 0.37983 0.095734 -0.038774 -0.29606 0.10976 0.14739 -0.32137 -0.19035 -0.06914 0.35494 -0.39883 -0.12972 0.32646 0.074754 0.11904 -0.1347 -0.23573 -0.32048 0.25455 -0.094284 -0.013041 0.03421 -0.0083341 -0.22708 0.39311 -0.07506 -0.14323 0.17381 0.14584 0.14637 0.094069 0.12902 -0.16918 -0.39213 -0.11597 0.079749 -0.4304 0.19596 0.32227 0.027888 0.23315 0.074156 0.14624 0.51072 0.22813 -0.15829 -0.25988 -0.18914 0.035436 0.15321 0.12707 -0.589 -0.14695 -0.13111 0.1918 -0.022201 -0.010267 0.39361 0.13366 0.59011 -0.24677 0.0074384 0.19802 -0.60511 -0.47888 0.22108 -0.12641 -0.01239 0.048362 0.25185 -0.099547 -0.24317 -0.16689 -0.062668 0.23204 -0.36028 -0.13499 0.28468 -0.035817 -0.63567
sea 0.12965 -0.18542 0.29562 0.25214 0.13568 0.36696 -0.22243 0.88262 -0.071221 0.46557 0.13197 0.27593 -0.38533 -0.12884 -0.030153 -0.061904 0.17414 0.10279 -0.037676 0.19107 -0.34928 -0.16769 -0.39911 0.074847 -0.20334 0.22565 0.1917 -0.45712 -0.50195 0.13873 -0.36255 0.25162 0.20023 0.099825 -0.27359 0.40198 0.17212 0.024522 -0.35207 -0.267 0.15945 0.082699 0.036616 -0.3056 -0.065622 -0.26106 0.72828 -0.15863 -0.18085 -0.074481 0.48301 -0.33692 -0.052021 -0.16042 0.19442 -0.60664 0.069893 -0.059365 -0.016868 -0.29853 -0.46898 -0.20987 0.10055 -0.2688 1.0092 0.11484 -0.12078 -0.23963 -0.10871 -0.3201 -0.32586 0.53734 -0.089626 0.34069 -0.17244 0.17058 -0.24519 0.054794 0.095202 0.14891 -0.22144 0.186 0.54855 -0.1742 0.56573 0.055054 -0.08171 -0.15422 0.41268 0.57734 -0.31867 0.12925 0.24674 0.50592 -0.37012 -0.19267 0.053915 -0.016611 -0.4799 -0.033493 -0.14657 -0.42728 -0.30806 -0.1857 -0.28149 -0.23843 -0.23316 0.24957 0.027904 0.23791 0.19952 0.64712 0.1325 0.15797 0.28341 0.138 -0.085732 0.67855 0.012397 0.26095 0.54989 -0.17336 0.21139 -0.02562 -0.28253 0.27569 0.36312 -0.15746 -0.024855 0.12074 -0.20455 -0.30792 0.089964 -0.44621 -0.029709 -0.29016 0.060653 0.022865 -0.28128 0.2054 0.073182 -0.084943 0.29179 -0.29229 -0.12545 -0.21206 -0.41014 -0.15766 -0.094705 0.28324
dollar 0.34155 0.21367 -0.3958 0.045394 -0.11906 0.62307 0.0089481 0.3661 -0.099284 0.20608 -0.058207 0.36523 0.28247 0.13929 0.059202 -0.26958 -0.32472 -0.3186 -0.21643 -0.17163 0.71121 0.05737 0.50245 -0.027562 0.16234 0.39735 0.18832 -0.21032 0.034386 0.026168 -0.069781 -0.25491 0.7719 0.12616 -0.42632 -0.15507 -0.092218 -0.37268 -0.33772 -0.033365 0.17863 0.14256 -0.012225 0.22192 -0.20357 -0.33294 -0.26571 -0.21691 -0.37287 0.19129 -0.018181 -0.55222 -0.33051 0.076591 0.32567 1.5526E-4 0.035397 0.26579 0.091079 -0.28163 -0.051892 -0.45739 -0.51728 -0.41261 0.22988 0.22237 -0.63877 -0.17937 0.19058 -0.12235 0.48843 0.42477 0.4529 0.28037 -0.81899 0.31053 0.10428 -0.27757 0.7174 0.15715 -0.70292 0.8842 -0.10704 -0.18172 0.0044081 -0.25387 0.69131 -0.15072 0.002723 0.0043643 -0.092764 0.16201 0.20306 0.1909 3.5526E-4 0.45814 -0.18677 0.18292 -0.25793 -0.34505 -0.34874 0.0074724 -0.5075 -0.58227 0.14929 -0.21644 -0.4343 0.32367 0.062265 0.51152 -0.13885 0.032926 -0.024324 -0.10321 0.011714 0.35503 0.19111 0.14549 -0.37767 -0.30432 0.39423 -0.023474 -0.15962 0.14652 -0.38779 0.083136 0.79612 0.0021479 -0.37969 0.44949 0.018813 0.0083223 0.086504 -0.43208 0.098962 0.25369 -0.15804 0.3212 -0.1886 0.47769 0.33342 0.023951 0.17922 0.34806 0.14759 -0.21519 -0.42992 0.12249 -0.20459 -0.038532
example -0.028041 -0.022091 -0.37732 0.066699 -0.006032 0.1074 0.049632 0.14704 0.20593 -0.14864 0.075162 -0.14295 0.20544 -0.0029345 0.084717 -0.099114 0.061507 -0.1856 -0.055273 -0.050696 0.43568 0.32447 -0.10136 -0.20322 0.14518 0.35131 -0.1979 0.13555 0.046614 -0.12808 0.047261 0.085228 0.16267 0.31017 0.032455 0.17778 0.18316 0.061541 -0.13043 -0.075627 0.074278 0.038356 0.215 -0.12182 -0.034399 -0.12262 -0.15656 -0.088239 0.023745 0.27088 0.32374 -0.10685 -0.37443 -0.067177 -0.20998 -0.3215 -0.17439 -0.19686 0.27792 -0.077847 -0.092484 0.027817 -0.25698 -0.15215 -0.15455 0.041177 -0.0073652 -0.1927 -0.028662 0.21614 -0.012923 0.083519 -0.11957 -0.26221 0.17648 0.084463 0.33274 -0.038685 -0.048125 0.27694 -0.30458 0.089793 0.14521 0.11861 0.21076 -0.045841 -0.11572 -0.12069 0.10627 0.14997 -0.28616 0.022996 0.052675 -0.062568 0.23829 -0.10031 -0.13537 -0.026296 0.077944 0.10068 -0.20816 -0.17116 -3.0998E-4 0.011222 -0.095372 -0.095018 -0.24697 0.34738 0.22609 0.011885 0.13746 0.12977 -0.049813 0.45601 -0.03076 -0.090185 0.12586 0.095926 -0.051554 0.089017 0.18077 -0.33595 0.14022 0.15261 0.099796 -0.25022 0.18923 -0.047107 -0.14247 0.075913 -0.24083 0.037298 0.18519 -0.19658 -0.2703 0.11277 -0.16127 -0.2639 -0.16115 -0.14072 -0.3456 -0.09389 0.079297 0.091588 0.28455 -0.004823 -0.24164 0.22647 -0.25812 -0.19738
journal -0.010718 -0.13264 0.35355 0.29795 -2.9639E-4 -0.16915 -0.7414 -0.1422 0.41965 0.17556 0.082668 0.13508 0.080836 0.0059118 -0.51874 0.20857 0.059891 -0.19458 -0.37624 -0.18129 -0.2059 0.029592 -0.091715 0.02233 0.13333 -0.33791 -0.16289 -0.40343 -0.18629 -0.36184 -0.43717 -0.041651 0.20697 -0.044189 0.57543 -0.17054 -0.14753 -0.42458 0.27079 -0.14274 0.10444 0.045375 0.18726 0.1876 0.043336 -0.36714 0.17247 -0.36336 -0.59122 -0.22571 -0.032128 -0.16668 -0.73153 0.18319 0.10792 -0.94861 0.044762 -0.051075 0.1592 -0.26678 -0.25478 -0.34651 0.139 -0.42687 0.28528 0.51913 -0.1218 -0.017664 0.16354 0.44062 0.16942 0.36003 -0.56508 -0.23874 -0.023963 -0.041063 0.061589 0.30182 0.37993 0.23326 -0.54115 -0.62701 -0.29078 -0.33154 -0.12643 0.19139 0.15963 -0.13903 0.11373 -7.4461E-4 -0.0082565 -0.5223 0.3337 -0.05177 0.31991 0.21735 -0.6387 0.14646 0.082702 0.6296 0.38996 -0.012657 0.35031 -0.22513 0.029971 0.040352 0.047945 0.72741 0.6719 0.33864 0.091769 0.55524 0.072183 0.72718 -0.025826 0.06359 0.0092136 0.67918 -0.33665 0.731 0.535 -0.21312 0.067099 -0.42854 0.20267 -0.045884 -0.029434 -0.42599 -0.38653 0.7033 0.22292 8.3515E-4 0.29488 -0.10644 0.0028251 0.40825 -0.022279 0.28388 -0.17439 -0.48235 -0.87904 0.029806 0.075657 0.040611 0.14542 -0.69156 -0.8775 -0.061376 0.38685 -0.058996
laundering -0.10371 0.27102 0.16136 0.37558 -0.050179 -0.31674 -0.36391 0.1303 1.3851E-4 -0.059806 -0.26454 0.071389 0.05436 -0.24243 0.4796 0.21022 -0.30769 -9.6643E-4 0.092977 -0.12051 0.055081 0.0040948 0.1525 0.022201 -0.011436 0.30145 0.10863 -0.17727 -0.411 -0.41286 -0.062707 -0.3636 0.244 0.15334 -0.56464 -0.12997 -0.14263 -0.35324 -0.66804 -0.0051926 0.45627 0.1666 0.95311 -0.52671 -0.53801 0.025177 -0.35546 0.12123 0.11565 -0.22288 -0.12971 0.012099 -0.1519 0.10072 0.06123 0.24501 -0.34565 -0.12146 -0.16698 0.22565 -0.10247 -0.36974 -0.18496 0.10779 -0.4159 0.12469 -0.026274 0.33115 -0.3698 0.053502 -0.10705 -0.38528 0.88533 0.066472 0.12801 -0.056133 -0.15817 -0.46941 0.32082 -0.084349 -0.11167 -0.45069 0.0088105 -0.51811 -0.079234 -0.0071747 0.079604 -0.34526 0.68807 0.19239 0.36637 0.16357 0.4414 -0.11793 0.37964 0.23206 -0.15665 -0.35699 -0.0038756 0.49441 -0.41699 -0.23774 -0.2782 -0.54995 0.06808 -0.69681 0.16205 0.5736 0.10217 0.38029 -0.25782 0.21424 -0.13341 -0.6213 -0.045904 0.51439 0.27802 0.29794 -0.12255 -0.56583 -0.13945 -0.4 -0.061734 -0.49326 -0.11305 0.23815 0.97759 -0.24901 -0.05822 0.12816 -0.58182 -0.07658 -0.46725 -0.45168 -0.44279 -0.073164 -0.28618 -0.0081745 -0.66554 0.31161 -0.52172 0.3803 0.41593 0.0060157 0.029837 -0.24096 -0.79037 0.005536 0.16789 -0.11316
hotel -0.0085955 -0.36978 0.21407 0.017905 -0.15557 -0.31473 0.3404 0.20682 0.31937 0.16896 0.37219 0.30357 0.11835 -0.25319 -0.25529 -0.18927 0.1356 0.2741 0.21534 0.18941 0.12579 -0.28562 -0.54721 0.10247 0.018546 0.097526 0.036556 0.0046807 0.01048 -0.15061 -0.32569 -0.063755 -0.064413 -0.05536 -0.055936 0.38786 0.3873 -0.13148 -0.63574 0.16004 0.28963 -0.13668 0.37284 -0.12209 -0.045888 0.087831 0.056261 -0.31938 -0.015116 0.69708 0.5005 -0.37001 -0.51456 0.28735 -0.22447 -0.24289 -0.089979 -0.18056 0.35162 -0.044046 0.038725 -0.29896 -0.064911 -0.21764 0.21494 -0.22367 0.094548 -0.27322 -0.092587 -0.27084 -0.059561 0.37692 -0.030749 -0.18422 -0.29337 -0.37849 -0.27497 -0.3951 0.20741 0.37041 0.14226 -0.18086 0.11433 -0.5326 0.12231 0.25163 0.47002 0.083011 0.54969 0.43108 0.40802 0.51472 -0.25873 -0.022784 -1.4471E-4 0.0051515 0.062921 -0.44478 -0.25677 -0.37681 -0.20561 -0.22789 -0.30027 -0.80546 -0.31965 0.065384 -0.3859 -0.17697 0.33289 0.19204 -0.073678 0.19617 -0.25219 0.098443 0.040362 -0.32805 -0.43331 0.22897 -0.12041 -0.2411 -0.074449 -0.088011 -0.12148 0.027766 -0.018336 -0.020401 0.31796 0.027592 0.081256 -0.41581 -0.40785 -0.24263 0.12464 -0.22824 -0.046599 -0.080403 -0.43966 -0.13157 -0.11153 0.31122 -0.49002 0.012446 0.13138 8.2437E-4 0.33571 -0.059608 -0.35749 0.16913 -0.2219 0.36005
term 0.42113 0.12067 -0.67747 0.0062202 0.07659 -0.1262 0.16793 0.11778 0.33227 0.20096 -0.121 -0.085018 0.68446 0.41823 0.78754 0.55747 0.21017 -0.19569 0.062142 0.14586 -0.070976 0.14421 -0.44992 -0.11746 0.29706 0.52037 0.048794 0.18611 -0.10583 -0.086718 -0.1033 0.064295 0.063896 0.062666 -0.088254 0.24393 -0.86088 -0.10712 -0.037476 -0.063338 -0.04105 0.14423 0.52055 0.0075345 -0.047341 0.061436 -0.29512 0.28674 -0.10332 -0.25509 -0.096783 -0.089036 -0.55555 0.24466 -0.12324 0.1786 3.0399E-4 0.19487 -0.20942 -0.116 -0.06271 -0.14826 -0.061075 -0.28584 0.10496 0.12045 -0.55997 0.16405 -0.19393 0.097219 0.33161 -0.074244 -0.10255 -0.18734 -0.2335 0.47387 0.36946 0.21303 0.16332 0.35092 -0.12534 0.08478 0.32915 -0.082381 0.32937 -0.37591 0.17501 0.089687 0.14787 0.37606 -0.040041 -0.011766 0.24848 -0.089665 0.4684 -0.52108 -0.42038 -0.01181 -0.037181 0.63872 -0.10231 0.1377 -0.32089 0.17157 0.52522 0.28371 -0.081938 0.021634 -0.012461 0.31401 -0.40152 -0.067772 0.18146 -0.075838 -0.21724 -0.083935 -0.024636 0.63445 0.042494 0.51722 0.028516 -0.13764 -0.090465 0.062841 0.097455 0.011177 0.53168 -0.024597 -0.51746 0.062769 -0.27465 -0.23237 -0.094986 -0.062699 0.17701 0.38007 -0.71643 0.062433 -0.29259 -0.0023583 -0.29377 0.14055 0.13537 -0.31661 -0.36124 -0.16448 0.20647 0.4522 -0.096947 -0.060463
listing -0.06708 -0.43474 -0.61549 -0.27247 -0.094059 -0.54191 0.28468 -0.26115 -0.31792 0.24228 0.21862 0.26043 -0.09984 0.25322 0.34538 -0.10206 -0.027535 -0.30826 -0.38904 -0.014811 -0.0076238 0.1909 0.26302 -0.007554 -0.10267 -0.04839 -0.41672 0.14869 0.23468 0.2212 0.28437 0.26914 0.16893 -0.023637 0.034457 0.21726 0.12536 -0.29961 -0.38304 -0.15731 0.089299 0.19008 0.32507 -0.57041 -0.17257 -0.25401 0.12962 -0.14356 -0.29552 0.34166 0.093144 -0.31299 -0.26617 0.36785 0.25793 -0.25593 0.029917 -0.21118 0.11497 -0.066237 -0.32077 -0.19502 -0.28567 -0.060325 0.2287 0.0058199 -0.073042 -0.3891 -0.099091 0.0033337 0.51785 0.5879 0.74347 0.020093 0.24561 -0.031556 0.041408 0.031688 0.32053 0.17297 0.042619 0.0047692 -0.069556 0.022922 0.22769 0.15323 0.064297 -0.29944 0.50159 -0.16066 0.22607 0.34829 0.20391 -0.090562 0.51828 -0.12261 -0.30144 0.48758 -0.065256 0.029517 0.15213 -0.043434 0.044834 -0.33518 0.18406 -0.027434 -0.57003 0.59074 0.25308 0.088798 -0.24597 0.32758 0.062691 0.46436 0.45484 -0.18333 -0.048729 0.38136 0.35457 -0.090387 0.38082 0.15911 -0.47073 -0.073291 0.0058179 -0.056686 0.41923 -0.19363 -0.034417 -0.25405 -0.005049 0.12964 -0.16457 -0.5075 -0.21949 0.18378 -0.33569 -0.19631 -0.044664 0.18973 -0.46492 0.056484 0.21897 -0.11842 0.033786 -0.098318 -0.1946 -0.038076 0.067007 -0.13635
chemistry -5.3006E-4 0.19674 0.095576 0.021169 -0.086786 -0.23449 -0.42246 0.31158 0.30497 0.10561 0.66673 -0.36953 0.38248 0.28876 0.28417 0.17769 0.30987 0.065862 -0.041878 -0.0019537 -0.17365 -0.32373 -0.50233 -0.27675 0.14373 0.20882 -0.07669 -0.3169 0.20435 -0.26501 -0.17819 -0.18509 -0.081606 0.25739 0.39089 0.079116 0.23059 -0.43158 -0.13241 -0.12424 0.25556 -0.10601 -0.062875 0.18836 0.45007 -0.11608 0.35852 0.1922 -0.2151 -0.17828 -0.24674 -0.060621 -0.32034 0.018589 0.073702 -0.32992 0.1102 0.031487 0.08449 -0.041154 -0.056261 -0.17787 0.0015479 0.10288 0.44765 0.25453 -0.027002 0.55246 -0.0020887 0.28649 -0.1628 0.54974 -0.58155 -0.0079521 0.19045 -0.27074 -0.12638 0.092168 0.14506 -0.1164 -0.52066 -0.23725 0.049368 0.17083 0.15717 -0.28901 -0.38311 -0.35466 0.25166 0.28256 0.12135 -0.037143 0.29583 -0.41527 -0.26214 -0.31314 -0.28634 0.27281 -0.48373 -0.64079 -0.41444 0.20929 0.39036 -0.089826 -0.074454 0.28334 0.11822 0.0079632 0.81764 0.1137 -0.13627 0.47713 -0.32397 -0.091933 -0.19459 -0.049464 0.14562 0.23683 -0.066022 0.37308 0.66721 -0.11352 -0.029485 -0.16422 -0.014614 0.077418 0.13761 0.29968 0.066021 0.79859 -0.34662 -0.006812 -0.17608 -0.061257 -0.44409 0.46139 -0.30013 0.07138 -0.43699 -0.12782 -0.41091 -0.097107 -0.061124 0.327 0.31983 -0.47212 -0.53755 -0.063367 -0.14471 -0.46264
seafood -0.07232 -0.33459 0.58571 0.23998 0.041156 -0.062789 -0.5026 0.26687 0.19047 0.082488 0.40098 0.12659 0.37923 -0.21219 -0.31988 0.044172 -0.13801 -0.34966 -0.12592 -0.22285 -0.43248 -0.54628 0.26993 0.21729 0.28327 -6.1145E-4 -0.12178 0.53929 0.083546 0.016401 -0.087852 -0.17138 0.17808 -0.020346 -0.075992 0.88769 0.18933 -0.3868 -0.1867 0.0093355 -0.12912 -0.15758 0.35084 0.09355 -8.2158E-4 0.097809 0.41719 0.047786 -0.45079 -0.2999 0.42557 -0.35568 -0.24238 0.1647 0.11767 -0.07699 0.13476 0.12125 0.14797 -0.035043 -0.44289 -0.56262 -0.75636 -0.41916 0.090732 0.23267 -0.16821 -0.063225 -0.12566 -0.65887 0.21489 0.58864 -0.38135 0.28651 0.027052 0.10227 -0.4199 0.4062 -0.32066 0.31394 -0.22709 0.36425 0.38665 -0.24841 0.12518 -0.14796 0.24944 0.12922 0.13971 0.48765 0.10652 0.32955 0.070469 0.37713 0.30878 -0.40229 -0.26704 0.16231 -0.69075 -0.3067 -0.78397 -0.46608 -0.61335 -0.26623 -0.20907 -0.19949 -0.45117 0.14781 0.28218 0.13389 0.44837 0.35926 -0.039087 0.51932 -0.14962 -0.2408 -0.56603 0.46376 0.10044 0.17968 0.22215 -0.43906 0.010287 -0.17729 -0.31505 0.099589 0.57236 -0.062493 -0.26943 0.2274 -0.24274 -0.076754 -0.51159 -0.81168 -0.29017 -0.27643 -0.16835 -0.34767 -0.39316 0.33401 0.24995 0.17378 0.32502 -0.13957 0.32994 -0.25814 -0.48494 -0.27392 -0.27348 -7.2121E-4
CD 0.31098 -0.10829 -0.24469 -0.14146 0.28267 -0.057541 -0.63972 -0.024429 -0.4303 0.23706 0.16483 -0.031166 0.1224 0.094294 -0.35093 -0.2866 -0.72478 0.26128 0.14285 -0.30604 0.063273 -0.015018 -0.28221 -0.016617 0.58776 -0.26232 -0.062134 -0.46082 0.21581 -0.37712 0.034117 0.078468 0.091331 0.84943 -0.30327 0.66751 0.17234 -0.21918 0.0078422 -0.26435 0.42239 0.30456 0.36191 -0.075534 -0.48052 -0.52037 0.089646 -0.4461 -0.3784 -0.21654 0.45237 -6.7174E-4 0.081147 0.42765 0.51538 -0.38798 0.09275 -0.44279 0.47017 -0.0083825 0.16219 0.6415 0.058147 -0.4189 -0.1988 -0.057229 -0.24767 0.34987 0.51913 -0.22654 0.37668 -0.039776 0.24334 -0.0030806 0.080411 0.11209 -0.46691 -0.57606 0.37825 0.074818 -0.3626 -0.26268 -0.30392 -0.25872 0.14347 -0.098417 0.23118 0.37442 -0.1123 0.13443 0.41117 0.083305 -0.27691 -0.078862 0.86138 -0.47336 -0.46686 0.16464 -0.09441 0.10674 -0.41277 0.2445 0.22299 -0.25817 0.04002 0.025791 -0.40705 0.10713 0.088418 0.11016 -0.19048 0.16334 -0.62453 0.24592 0.18506 -0.18745 0.26506 0.057146 -0.30818 -0.4779 0.48559 -0.14644 -0.074852 -0.1733 0.26862 -0.31058 0.35482 -0.20916 0.010425 0.45647 -0.21184 -0.17322 0.43448 -0.42538 -0.14701 0.28151 -0.48959 0.27796 -0.37656 0.3575 -0.20741 -0.18763 0.28315 -0.1435 0.55599 0.22729 0.14814 -0.3841 -0.335 -0.15831
mind -0.1858 0.089611 -0.29592 -0.22304 -0.12228 -0.01396 -0.39385 0.086046 0.29961 0.070181 -0.071779 0.06581 0.082457 0.051848 0.38249 0.4086 -0.0020043 -0.27912 -0.15788 -0.27078 -0.12814 0.27177 -0.29631 -0.18397 0.33866 0.25056 0.060187 -0.11358 0.10205 -0.44494 -0.3127 0.243 -0.11925 0.069388 -0.10384 0.13728 0.077393 -0.37246 -0.42394 -0.15538 0.38983 -0.048723 0.27161 -0.43478 -0.062711 -0.033829 0.10531 0.18674 0.037918 0.40824 0.18768 -0.51324 -0.26424 0.11311 0.042338 -0.30057 0.24989 -0.0028182 0.19984 0.017897 0.18849 -0.11531 -0.14207 -0.10901 -0.11533 -0.053027 -0.26358 0.046315 -0.085927 -0.10361 0.20512 0.45364 -0.10164 -0.016511 -0.11896 -0.21319 -0.058824 -0.12202 -0.028262 0.20635 -0.23649 0.042461 0.216 0.3025 0.20517 -0.065315 -0.006884 0.015023 -0.33796 -0.083722 0.027756 0.21137 -0.34077 -0.12725 -0.071024 -0.35584 -0.0044153 0.26735 0.30605 -0.17127 -0.064522 0.48245 0.017782 -0.22907 -0.084089 -0.052918 -0.33955 0.23994 0.44028 -0.12206 -0.073903 -0.078754 0.050434 0.27737 0.010238 -0.042582 -0.05865 0.090292 -0.055723 -0.23591 0.38695 -0.0367 -0.12549 -0.28534 0.080672 0.10707 0.15207 0.12829 -0.037204 0.37776 0.053651 -0.068921 0.020828 -0.10773 -0.051918 -0.064012 -0.035768 0.0021422 0.037191 0.082254 -0.38092 0.17293 -0.15336 -0.16202 0.10583 -0.091494 -0.13307 -0.033481 -0.14547 0.047831
sex 0.46577 0.41904 -0.62377 -0.16975 -0.22442 0.0080057 -0.52679 0.11885 0.025846 0.12628 0.058624 0.009409 0.53699 0.029223 0.26881 0.57114 0.029252 -0.024116 -0.2123 -0.18411 -0.27447 -0.46285 -0.33824 -0.089665 -0.11062 0.48358 0.33612 -0.053465 0.20914 -0.30552 0.60128 -0.0047286 0.19151 -0.41393 -0.40967 0.43448 -0.11178 0.34172 -0.45559 0.31181 0.21334 0.50178 0.014892 -0.04771 -0.27069 0.11888 -0.028237 0.24421 0.11486 0.2645 -0.022852 -0.28 -0.41359 -0.18335 -0.21314 -0.14603 -0.2016 -0.041782 0.11894 -0.21411 0.1637 0.29304 0.058568 -0.21029 -0.51429 -0.27609 0.22183 0.41969 -0.23593 -0.06328 -0.27124 0.026085 -0.15641 -0.1802 -0.28206 -0.21886 -0.26904 0.23809 0.056732 0.12351 -0.3937 -0.06878 0.24671 -0.35825 -0.26281 -0.18918 -0.14563 0.083333 0.045451 -0.20094 0.43173 0.053745 0.016602 0.17323 0.090529 0.13485 -0.054825 0.23062 -0.033998 -0.25048 -0.048239 0.081329 -0.36139 -0.26803 -0.53765 0.017498 -0.25924 0.32635 0.67426 0.33105 -0.15872 0.75533 -0.45346 0.1853 0.20881 -0.098137 0.018928 0.26347 -0.14138 0.40779 0.51174 -0.31705 -0.047662 -0.17566 0.13266 0.13617 0.32379 -0.23283 -0.60453 0.37774 -0.40902 0.14661 0.15804 -0.03928 -0.20812 0.20707 0.072181 -0.23885 -0.43338 0.07721 -0.80871 0.17079 0.69862 0.016512 0.080969 -0.14576 -0.39644 -0.24614 -0.22409 0.50237
food -0.025949 0.035291 0.085994 0.41977 -0.26681 -0.19311 -0.21458 0.57034 0.11187 0.065817 0.29786 0.32767 0.23759 -0.6161 0.10815 -0.10988 -0.060269 -0.22066 0.25406 -0.13994 -0.43667 -0.24066 0.24298 0.35215 0.23431 0.1014 -0.015446 0.39183 0.10619 -0.14327 -0.4329 0.066329 -0.25659 -0.03466 -0.063216 0.55093 0.23433 -0.24528 -0.19536 -0.0033029 0.2546 -0.44618 0.078869 0.38999 0.04158 0.14239 0.42534 0.067941 0.11629 -0.35577 0.30851 -0.39896 -0.37447 0.11908 -0.06847 -0.28499 0.12822 -0.057385 0.46477 0.058246 -0.297 -0.086148 -0.3045 -0.23444 0.30125 0.12172 -0.33085 -0.11919 0.02261 -0.11232 -0.037808 0.52698 -0.018703 -0.27039 -0.17287 0.01467 -0.028574 -0.35432 -0.16141 -0.087605 0.085833 -0.0081801 0.1689 -0.0017048 -0.05249 -0.27412 0.22882 0.040188 -0.012655 -0.0030301 0.15247 -0.023008 0.44711 -0.056065 0.28236 -0.28458 -0.3599 -0.17369 -0.55438 -0.3071 -0.77473 -0.36486 -0.62533 -0.033927 -0.0059184 -0.1656 0.010156 -0.1914 -0.091587 -0.25206 0.29414 0.18127 0.026119 0.15531 -0.3672 -0.19478 0.23188 -0.14574 -0.13149 -0.12381 0.57978 -0.67161 0.019713 -0.18719 -0.15701 0.089916 0.47248 0.066852 -0.25349 0.49918 -0.015969 0.0013925 -0.11737 0.19517 -0.24839 0.16201 -0.38901 -0.11603 -0.22554 -0.1152 0.18632 -0.10489 0.61199 -0.099053 0.47037 -0.49132 -0.52851 -0.044906 -0.14366 -0.035962
precedent -0.37868 0.25532 -0.7275 -0.61278 -0.0019909 -0.27944 -0.64545 0.22494 0.34639 -0.18094 0.074894 -0.10541 0.37737 0.4426 0.34139 0.56661 0.38012 0.18558 0.091768 -0.14081 0.10692 0.29919 -0.21052 0.26778 0.17175 0.24727 0.14088 -0.32447 -0.26457 -0.45536 -0.34109 0.19447 -0.084899 0.053124 -0.25462 0.19837 -0.14366 0.2481 -0.034159 -0.18221 -0.2089 -0.025611 0.38957 -0.26369 -0.15085 0.082934 0.088862 -0.16687 0.20893 0.06972 0.33662 -0.11857 0.096269 -0.074559 -0.086858 -0.3046 -0.010938 -0.58219 0.073662 -0.047815 -0.2909 -0.23063 -0.1164 0.011098 -0.21463 -0.12729 0.012251 0.0027864 -0.048427 0.16556 0.21986 0.18028 -0.043028 -0.064548 0.14968 0.27784 -0.11887 -0.065896 0.40341 0.29366 -0.53453 0.24113 0.2146 0.11349 -0.076252 -0.25758 -0.0071827 -0.07945 0.2137 0.18369 -0.16064 0.15618 0.10904 -0.23044 0.2285 0.059282 -0.21868 0.14287 0.015886 0.23802 -0.10593 0.024367 -0.14094 0.35321 -0.32434 -0.30733 -0.070516 0.41509 0.082922 0.049028 0.21722 0.22059 0.079244 0.40694 0.11445 0.29437 -0.090753 -0.059669 -0.27462 0.14705 -0.15963 -0.16689 -0.32803 0.0094963 0.23548 0.13121 0.22625 -0.083854 0.099434 0.37091 -0.25259 0.1013 0.077068 -0.23795 -0.027982 -0.16311 -0.22713 -0.25009 0.011965 0.19595 0.23846 0.14814 0.21037 0.070977 -0.012609 0.19787 -0.52189 0.61012 0.08605 -0.47592
series 0.37962 -0.04512 -0.1158 -0.027431 0.050272 0.2215 -0.16555 -0.27014 0.42605 -0.17412 0.38388 -0.035233 0.16565 -0.033577 -0.14636 0.37174 0.37416 0.03171 -0.29188 -0.18006 -0.30164 0.63065 -0.79226 0.52147 -0.029317 -0.032999 -0.046013 0.072918 -0.071945 -0.33145 -0.08321 -0.4831 0.22777 -0.29462 -0.037179 0.061206 -0.27008 0.31858 -0.04306 0.23576 -0.11169 0.38468 0.043601 0.0073566 -0.034715 -0.15747 -0.20662 -0.0084745 0.17261 0.056219 0.39659 0.25028 0.085363 -0.038988 -0.09452 -0.23945 -0.21888 -0.13366 -0.044657 0.14501 -0.32144 -0.15648 -0.088113 -0.021092 -0.030344 -0.30482 0.042237 0.010345 -0.055657 -0.13998 0.42815 0.12018 0.19843 -0.072765 -0.089138 0.20382 0.02943 -0.64189 0.3598 0.62041 -0.10969 -0.17443 0.10564 -0.12195 0.0049746 -0.16847 0.023168 -0.12671 -0.28656 -0.28604 0.14946 -0.12269 0.11088 0.0049077 0.036584 -0.19041 -0.091403 0.35599 0.40955 0.13745 -0.4975 -0.28704 0.052129 -0.36875 -0.034691 -0.33962 -0.089022 -0.029444 0.28282 0.028852 0.049186 0.336 -0.30744 0.31332 0.11277 -0.35122 -0.11792 0.22811 -0.15927 -0.45007 -1.7278E-4 0.022081 -0.24512 -0.16128 -0.10262 0.061594 0.15019 0.38904 0.027134 0.24611 -0.30526 -0.10392 -0.029738 0.031616 0.18225 0.56435 0.18536 0.22344 -0.12698 0.097357 -0.13675 0.018962 -0.014007 0.31041 -0.035638 -0.32962 -0.21266 -0.12681 -0.062782 -0.13576
kilometer 0.30484 0.0092468 0.17564 0.53258 0.022893 0.36077 0.20803 0.12866 -0.48053 -0.095819 -0.15338 -0.22606 0.11598 0.51909 0.065077 0.63533 0.25368 0.20982 -0.092352 -0.176 0.52462 0.27022 -0.10161 0.018502 -0.089641 -0.29213 0.4603 -0.37609 -0.21227 0.16783 -0.70698 0.091015 -0.13447 -0.21601 -0.68637 0.29337 0.052132 0.01115 0.054054 0.75151 0.42669 0.046767 -0.29379 -0.11304 0.070586 -0.15736 -0.12035 -0.37825 -0.74765 -0.036328 0.1937 -0.17438 0.031842 -0.083151 -0.16132 -0.074333 0.70364 -0.15171 -0.46251 0.047624 -0.10341 -0.63369 -0.31789 -0.65597 0.67362 -0.013998 -0.218 0.14315 -0.84985 -0.017601 0.31438 -0.03536 -0.25345 0.39936 -0.48234 -0.11724 0.050425 -0.42469 0.31526 0.91678 -0.44059 -0.61264 0.065348 0.5378 0.13132 0.12619 -0.22516 0.36729 0.56915 1.0173 -0.12436 -0.046937 0.20128 0.0059504 0.51907 0.16031 -0.73234 -0.33202 -0.67153 -0.036278 -0.25 -0.45754 0.74291 -0.53036 -0.11388 -0.047549 -0.37656 0.26866 0.94447 -0.053188 0.21582 0.28355 0.39932 -0.35086 0.023762 0.042951 -0.47689 -0.11445 -0.049037 -0.41487 0.64714 -0.028471 0.34582 0.048685 -0.36773 0.22513 0.12934 -0.446 0.027396 -0.040076 0.15465 -0.16436 0.80312 -0.18361 0.46796 0.028473 -0.32745 -0.13264 0.11246 0.041687 -0.29283 0.20746 -0.17051 -0.38978 0.68315 -0.087702 -0.73453 -0.06189 -0.85602 0.86139
grocery 0.011881 -0.27394 0.24535 0.353 -0.25736 -0.21184 -0.3306 0.054627 -0.14134 0.1198 0.40146 0.20286 0.34637 -0.47906 -0.16708 -0.20613 -0.3268 -0.57871 0.060123 0.07548 -0.20057 -0.14463 0.15244 -0.017646 0.39577 0.35433 0.23651 0.22832 0.55742 -0.23899 -0.39805 -0.26997 -0.36803 -0.033784 -0.25468 0.050448 0.2055 -0.061306 -0.49921 0.17318 0.20785 -0.077829 0.3894 0.3274 -0.071787 0.41126 0.2125 -0.14331 -0.31085 0.3691 0.60728 -0.71939 -0.81009 0.023586 0.18054 0.26697 0.24944 -0.16369 0.56507 0.054316 -0.3152 -0.38079 -0.14366 -0.48319 -0.016298 0.19726 -0.028369 0.37675 0.018213 -0.1362 0.19079 0.035895 0.091522 0.088207 -0.13618 -0.0030052 0.093463 -0.11433 -0.48428 -0.042825 0.44559 0.019846 0.071448 -0.016545 0.026936 0.31065 0.70365 0.39782 0.21461 0.16169 0.0044644 0.19737 0.34926 -0.13349 0.64217 -0.5531 -0.55237 0.18737 -0.40142 -0.21644 -0.66529 -0.68533 -0.57296 -0.42481 0.064143 -0.06891 -0.26437 -0.47217 0.026142 -0.29908 0.11521 0.11761 0.041037 0.14122 -0.38411 0.0025492 -0.17154 0.41209 -0.13565 -0.22402 0.34861 -0.16347 -0.050957 -0.040717 -0.10267 0.26178 0.3086 -0.18636 -0.22741 0.55955 0.1786 0.022488 -0.17238 -0.16872 -0.10142 0.15518 -0.44102 0.056599 -0.14769 0.0079811 -0.19127 -0.26911 0.67609 -0.12187 0.45261 -0.3884 -0.15019 0.069107 -0.81605 0.056757
wizard 0.021552 -0.079961 0.0064073 0.078685 -0.10618 0.027906 -0.15499 0.25169 -0.29437 0.25746 -0.061173 -0.15391 0.03181 0.29137 -0.26071 0.11412 -0.37857 -0.24866 0.054251 -0.45806 0.063237 0.20815 -0.64803 -0.17583 0.29849 0.75711 0.19883 -0.61264 -0.36647 -0.30472 -0.013893 -0.44777 -0.078521 -0.070201 0.2815 0.027483 -0.069473 -0.042542 0.39635 0.071975 -0.22328 0.21538 -0.12798 -0.25744 -0.14089 -0.31008 0.37014 0.014486 0.29469 0.11526 0.46902 -0.072987 -0.74396 0.20153 -0.4397 -0.10195 0.17569 -0.4854 -0.12369 0.26117 -0.21965 0.52534 0.37609 -0.17384 -0.058678 -0.40489 0.016656 0.31301 -0.053704 0.092708 0.22563 0.63436 -0.14694 -0.21289 0.18117 -0.087783 -0.24361 0.28109 0.12713 0.24898 -0.082043 -0.15185 0.11972 0.014437 -0.041144 0.14239 0.066969 -0.081713 -0.54288 -0.087161 0.21712 -0.10157 0.53718 -0.0055542 0.23415 -0.064987 0.09781 -0.15466 0.16486 -0.44723 -0.2787 0.17501 0.15912 -0.23951 0.14447 -0.66751 -0.33567 0.29004 0.13989 -0.032027 -0.25568 0.22952 -0.27452 0.55 0.23064 -0.59905 -0.015288 0.47044 -0.0065745 0.22187 0.35563 -0.41067 -0.20967 0.014468 -0.071604 -0.081296 0.1705 0.14802 0.35872 0.43638 -0.42838 -0.42731 -0.041733 -0.31133 -0.7157 0.16326 -0.29386 0.43456 -0.26272 -0.061507 -0.45191 -0.030724 -0.32396 -0.0097871 0.052797 0.026759 -0.39519 -0.48218 0.18222 -0.17598
information -0.042714 -0.35078 -0.39561 0.52984 0.21005 -0.56184 -0.43376 0.024909 0.10808 -0.37431 -0.28754 -0.40564 0.1928 0.013934 0.17862 0.10408 -0.043939 0.11508 0.17369 -0.34217 0.1246 -0.067751 0.093063 -0.22597 0.11809 0.70529 -0.17038 0.0093465 0.38897 -0.017838 -0.042731 0.12483 -0.31675 0.3246 -0.071388 0.30698 -0.012922 -0.15912 -0.25138 0.0087739 0.1818 -0.10637 0.43103 -0.46815 -0.5683 -0.055516 -0.36765 0.041983 0.011011 0.40108 0.4257 -0.28505 -0.14371 0.34056 0.37582 -0.036186 -0.34365 -0.084457 -0.12197 -0.16909 -0.027062 -0.43644 -0.37987 -0.63085 0.33637 0.35394 -0.066078 -0.24849 0.14482 0.36889 0.0096374 0.083226 -0.095211 0.1804 0.30095 0.33403 0.024811 -0.068596 0.030274 0.10561 0.12177 -0.016568 0.043874 -0.056418 -0.091441 0.21632 0.08976 0.025427 -0.076044 -0.0013945 0.091536 -0.0066222 -0.16046 -0.49429 0.33803 0.66411 0.026271 0.54399 -0.14289 0.4239 -0.50535 -0.48178 0.042289 -0.13686 -0.086495 -0.0077401 -0.26109 0.89991 0.4653 -0.025083 0.1543 0.18781 0.16558 0.31279 0.024541 -0.28292 0.1274 -0.041697 0.085735 -0.090998 -0.11525 -0.1851 -0.062038 0.15116 0.013524 0.16845 -0.30359 0.16004 -0.0048643 0.19931 -0.14938 -0.069128 0.19417 -0.1037 -0.20286 0.16469 -0.15362 0.16713 -0.31011 -0.075749 -0.36928 0.01449 0.20016 -0.025574 0.19929 -0.39717 -0.47123 -0.23874 0.045212 -0.29156
Israel -0.54819 0.15573 -0.6716 0.061752 -0.14586 0.051266 0.050685 0.34916 0.49754 0.071321 -0.049831 -0.094688 0.35419 0.31516 0.33155 0.42931 -0.18429 -0.23553 -0.24535 -0.0052073 0.14044 0.12802 0.21106 0.3554 0.55419 -0.19655 0.37521 -0.27287 -0.52706 -0.47259 0.36751 -0.48089 0.27451 0.050404 -0.088263 0.46022 -0.50763 -0.0065689 -0.65517 -0.18318 0.35392 -0.086229 0.39236 -0.13194 -0.29917 0.36044 0.18809 0.31744 0.076414 0.14454 -0.25593 -0.24729 -0.043209 -0.29974 -0.12371 0.0024709 -0.6333 0.22299 0.61396 -0.85119 -0.023949 0.34225 0.56144 -0.24032 0.27334 -0.087366 0.038412 -0.43322 0.29576 -0.075382 0.43705 0.027443 0.03555 0.32678 0.082328 0.096754 0.056328 -1.0205 0.31851 0.57421 -0.0017264 -0.3445 0.16788 -0.31289 0.13694 -0.28993 0.53237 0.23613 0.36772 0.12148 0.069896 -0.1074 -0.0040176 0.22628 -0.1638 -0.34738 -0.52773 0.25473 -0.090131 0.54796 -0.38986 -0.49008 -0.13988 -0.26683 -0.71189 0.0303 -0.64478 -0.088806 0.36402 0.067149 -0.081114 0.45635 0.19149 0.029565 0.41623 0.26437 0.31949 0.33255 0.15129 0.14481 0.17577 -0.48019 0.35558 0.39744 0.42716 0.48877 0.019258 -0.0023407 0.35944 0.54902 0.52459 -0.066703 0.21821 0.17123 -0.12207 -0.49715 0.089305 0.072741 -0.48813 0.12628 0.13165 -0.10403 -0.11866 0.39143 -0.22621 -0.11764 -0.36832 -0.14797 0.26143 -0.22457
brandy -0.24616 -0.030223 0.52647 -0.009016 -0.0014503 0.054625 -0.42896 0.29528 -0.23504 -0.23883 0.12986 0.16179 0.57102 -0.0084867 -0.27211 0.19756 -0.078711 -0.28612 0.036792 -0.089065 -0.034612 0.11725 0.040252 0.1072 0.5659 -0.019539 0.040133 -0.12812 0.088392 -0.21127 -0.27994 -0.11853 0.09742 -0.029888 -0.077172 0.11268 0.074723 0.16779 -0.52827 -0.12434 0.34899 -0.33178 0.42566 -0.12799 -0.056943 0.1874 0.1554 -0.073975 0.057551 -0.10311 0.012871 -0.087454 -0.49753 0.27425 0.12622 -0.034796 0.29584 -0.15357 -0.097991 -0.032045 0.091258 0.12736 0.026374 -0.19529 -0.31581 0.05309 -0.21523 0.12099 -0.28834 -0.3648 -0.12387 0.57246 -0.15036 -0.02102 0.16699 0.12192 -0.019977 0.1225 -0.083904 0.10002 0.23068 0.17379 0.076331 0.22542 0.19535 0.041262 0.12277 0.06468 -0.31735 -0.072118 0.021662 0.48131 -0.035549 0.21377 0.27516 -0.34922 -0.20216 0.12467 -0.066575 -0.34734 -0.28187 -0.10094 -0.24513 -0.0853 -0.28415 0.30686 -0.1966 0.35206 0.059663 -0.076641 0.25023 0.34204 -0.30865 0.55888 0.14361 0.17747 0.19965 0.4811 -0.10025 -0.17701 0.56527 -0.31631 0.20811 0.13658 0.058725 0.26949 0.3894 0.16467 -0.071852 0.27584 -0.30128 -0.30704 -0.0092295 -0.24361 -0.20353 0.0045928 -0.10594 -0.28647 0.0097864 0.21059 -0.35809 0.010803 0.24671 -0.080403 0.1276 -0.27172 -0.11511 0.064308 -0.44193 0.12069
interview -0.34877 -0.18785 -0.39535 -0.09092 -0.076731 -0.036557 -0.13841 -0.16763 0.1057 -0.0068727 0.041752 0.19849 0.57535 0.24493 -0.39028 0.22725 0.34606 0.18779 -0.11092 -0.34581 0.05878 0.22425 -0.58297 -0.056629 0.1093 0.46505 -0.10621 0.20204 0.25368 0.080933 -0.19951 -0.10354 0.20263 0.34224 0.0060721 0.13154 -0.012663 -0.19039 -0.10024 0.067686 0.25976 0.36886 0.2805 -0.35963 -0.4654 0.075224 -0.35791 -0.11589 -0.10045 0.44973 0.2686 -0.019506 -0.45237 -0.024521 -0.046394 -0.41344 -0.11463 0.1173 0.38157 -0.048355 -0.12682 -0.13838 0.16415 -0.26116 0.074587 0.027105 0.094785 0.27002 -0.53092 0.22009 0.37964 0.42754 0.08498 -0.17262 -0.14952 -0.07593 0.32875 0.14463 0.5179 0.062885 -0.11329 -0.40548 -0.33732 0.039761 -0.14738 -0.33476 -0.14839 0.44454 0.24543 -0.0179 -0.047867 -0.19188 -0.32759 -0.088987 0.26605 -0.25691 -0.38999 0.016333 0.56594 0.12864 0.15503 -0.14641 0.107 0.30254 -0.3541 -0.030953 -0.43182 0.11219 0.40553 -0.10167 0.076752 0.34095 -0.34936 0.090154 0.03839 0.03516 -0.15808 0.37193 -0.20305 0.043751 -0.049194 -0.2379 0.016092 -0.31544 -0.029099 -0.14254 0.19237 0.15844 -0.040351 -0.31203 0.46742 0.21544 -0.039346 0.45064 -0.04777 7.5903E-4 -0.22179 -0.11389 -0.039504 0.434 -0.57197 -0.058105 0.14779 0.0054444 0.15378 -0.32236 -0.36107 0.036902 0.21084 0.1749
prominence 0.32747 0.5117 -0.071877 0.08563 0.31738 -0.0081715 -0.047485 0.073715 0.34956 -0.12447 0.40178 0.26239 0.28744 0.24317 0.17001 0.42904 0.061006 -0.15784 -0.15985 -0.0054277 0.10817 0.44159 -0.040527 0.030569 -0.093912 0.32636 0.36403 -0.32285 -0.094263 -0.12882 -0.048552 -0.14599 -0.035769 0.26496 -0.069246 0.10279 -0.059757 -0.1271 0.14101 -0.019446 -0.357 0.043008 -0.3289 0.351 -0.38836 0.17239 -0.11232 0.11822 0.016066 0.18823 0.30172 0.37618 -0.50044 0.069773 0.18854 -0.31107 -0.20927 -0.22114 0.051367 0.27215 -0.23341 0.11053 0.0734 -0.18541 -0.01577 0.27381 0.072548 -0.25583 -0.075366 0.021094 0.28015 0.37478 0.12211 -0.13668 -0.01885 0.069866 0.23497 -0.081756 0.41502 0.22614 0.0096406 0.4126 -0.3566 -0.02621 -0.18054 -0.13793 -0.033678 0.066966 -0.029233 0.22936 -0.010427 0.16251 0.17594 0.072101 0.15393 -0.60011 0.11463 -0.093206 -0.084087 0.061125 -0.1217 0.057959 0.028262 0.017481 0.094708 0.24293 -0.24378 0.22496 0.47046 -0.065719 -0.15724 -0.0010826 0.19617 0.42781 -0.0035898 0.37921 -0.19304 0.20297 -0.15863 0.031177 -0.025864 -0.30629 0.15178 0.20511 0.0071529 -0.14364 0.25343 -0.12401 0.28389 0.033817 0.24841 0.013713 -0.13679 0.1346 -0.23826 -0.049307 -0.44632 -0.11826 -0.47296 0.17967 -0.61865 -0.26234 0.028378 0.37566 0.48827 -0.29256 -0.31792 -0.19629 -0.18158 -0.13305
bed -0.19949 -0.2181 0.091622 0.041394 -0.10031 -0.080297 -0.083846 0.32714 -0.035445 0.36363 0.23121 0.21145 -0.10366 -0.4692 0.018188 0.21289 0.27125 0.1221 -0.14502 -0.16867 -0.1056 0.11582 -0.36733 -0.2287 0.066349 0.53169 -0.082528 -0.15529 -0.33506 0.18689 -0.60548 0.21409 0.31897 0.049963 0.051431 0.27188 0.33739 -0.14492 -0.087435 0.085534 0.63281 -0.0097505 0.25719 -0.15282 -0.21476 -0.051413 0.062241 -0.24713 -0.2584 0.40814 0.26907 -0.27741 -0.61674 0.16426 0.077281 -0.31313 0.028108 -0.31792 0.62134 -0.50245 0.17776 -0.1762 -0.019921 -0.24012 -0.095446 -0.22931 -0.11419 -0.035766 -0.0037191 -0.27964 0.044835 0.22149 -0.062696 0.1508 0.35635 -0.27049 -0.094075 -0.013368 0.15272 -0.33515 0.10691 -0.3363 0.11737 0.21781 0.040695 -0.011352 -0.16819 0.44788 -0.18545 0.17357 0.19376 0.35404 -0.18354 0.082434 -0.20012 -0.25546 -0.23244 -0.27098 0.20991 0.027532 0.046495 -0.0098889 -0.11659 -0.30317 -0.059165 0.21187 0.03188 -0.374 -0.065381 0.17837 0.073523 0.48707 0.13165 -0.16627 0.28961 -0.18274 0.11901 0.23165 -0.39938 -0.15243 0.60663 -0.31977 -0.29863 -0.39047 -0.10748 0.23951 0.27534 -0.085242 -0.43487 0.26917 -0.16342 -0.19338 0.21679 -0.15832 0.2495 -0.19568 -0.090766 0.058387 -0.22962 0.010995 -0.54936 0.022045 0.63443 -0.069241 0.42015 -0.4078 -0.041095 0.12743 -0.54762 0.66313
furnace 0.14927 0.17691 0.064235 0.093728 0.19465 0.042421 0.43808 0.25681 0.019652 -0.46535 0.088524 -0.10493 0.1317 0.20034 0.2209 -0.017164 -0.0052646 -0.40334 -0.20216 -0.043724 -0.0312 0.34214 -0.064607 -0.10136 0.14963 0.34374 -0.48555 -0.1763 -0.2155 0.012877 0.050835 -0.06467 0.052418 -0.15605 -0.36949 -0.11779 0.43643 -0.068801 -0.27993 0.026601 0.79676 -0.015587 0.27275 0.13583 -0.21875 0.19339 0.22904 -0.37272 0.057156 0.061741 -0.21906 -0.1814 0.066604 0.0081723 0.3644 -0.57062 0.47602 0.15848 0.067684 -0.18136 -0.28202 -0.020821 0.005462 -0.35192 0.62374 -0.092063 -0.19451 0.074373 0.22189 -0.098633 0.11838 -0.0056177 -0.34225 0.035559 0.054926 0.072554 0.24737 -0.6936 0.20636 0.09935 0.064572 -0.20454 0.39138 0.37093 0.21866 -0.046332 -0.058811 -0.0049751 0.1406 0.11106 0.21855 0.39661 0.33324 -0.23783 -0.10478 -0.63055 -0.34052 0.049522 -0.13242 -0.2587 -0.51544 -0.2746 -0.041795 -0.41745 0.11518 0.11489 -0.056739 -0.19504 -0.63362 0.086418 0.09324 0.44741 -0.39819 -0.12062 -0.019126 -0.16276 0.065758 0.16215 0.11375 -0.18608 0.38605 0.11246 0.3237 -0.15392 -0.19928 0.28222 -0.024131 0.068342 0.1892 0.24213 -0.68268 -0.16271 0.0086845 -0.30764 0.13755 -0.10275 0.14715 0.34289 -0.77899 4.8238E-4 -0.015898 -0.24085 0.56032 -0.081542 0.379 -0.20927 -0.68749 -0.204 -0.46152 0.38652
evidence -0.28404 0.22333 -0.35679 0.090187 0.27657 -0.70098 -0.69897 0.079381 0.2545 -0.067485 0.048515 -0.12875 0.041417 0.33302 -0.21805 0.20096 0.014787 0.22535 0.38639 -0.53011 0.15654 0.10726 -0.22335 0.39131 -0.14141 0.50015 0.049758 0.12614 8.4679E-4 -0.28052 -0.30187 0.0043225 0.11467 0.34186 -0.027513 0.59556 -0.029241 0.053139 0.064505 0.0033823 0.30315 0.36703 0.14108 -0.15649 -0.47527 0.25084 -0.014818 0.15732 0.097958 0.13617 0.38527 -0.067582 -0.17208 -0.0012545 -0.014631 -0.3343 -0.23663 0.16431 0.018578 -0.50269 -0.13274 -0.44838 0.1388 0.057624 0.28644 0.16958 0.14852 -0.14351 -0.16246 0.48501 -0.35087 0.30855 -0.23711 0.069148 0.11769 0.18129 -0.01628 -0.33937 0.17814 0.20484 -0.025417 -0.28615 -0.12059 -0.19065 -0.29039 -0.0034373 0.21387 -0.033387 -0.075552 0.018992 -0.44883 0.24609 0.2275 -0.2694 0.033504 0.23525 -0.1205 -0.013941 0.39392 -0.14492 0.18457 0.16409 0.1336 0.042182 0.10091 -0.064081 -0.19983 0.51385 0.26179 0.26877 0.24786 0.263 0.16651 -0.080501 -0.04927 0.20996 -0.043474 0.26876 -0.039724 -0.16051 -0.006119 -0.1675 -0.21578 -0.51265 -0.2166 0.15436 0.2957 -0.31774 -0.23185 0.64515 -0.13302 -0.060265 -0.0019529 -0.026493 -0.26133 0.40008 -0.10337 -0.10157 0.064292 0.0023367 -0.22033 0.33371 0.26563 -0.10099 -0.027625 -0.31057 -0.84747 0.13259 -0.25542 -0.37008
sprint 0.45307 0.13556 0.17046 -0.63248 0.10677 -0.39437 -0.12905 0.6348 0.078691 0.22879 -0.086784 -0.22235 0.38491 0.53873 0.18289 0.39697 0.39098 -0.37265 -0.10464 0.46705 0.32658 0.55413 -0.030738 0.032356 0.36845 -0.23369 -0.08088 -0.097437 0.0017792 -0.42982 -0.38584 -0.01592 -0.044164 0.011574 -0.33711 0.21045 0.15462 0.33587 0.26464 -0.0082818 0.11876 0.041442 0.6174 0.11144 0.38506 0.28693 0.5985 0.14728 -0.5419 0.34502 -0.27353 -0.007102 0.33637 0.17829 -0.060809 0.43324 0.25212 -0.16421 -0.1896 0.54934 -0.028643 -0.86885 0.10232 -0.0069864 -0.10838 -0.077126 0.25955 -0.38748 -0.1349 0.10568 0.41317 0.70319 0.050422 -0.14583 -0.033285 0.37016 -0.34513 0.11396 0.38211 0.19344 -0.24972 -0.049803 -0.47385 0.19101 0.53142 -0.18737 0.017582 0.43678 0.36978 0.051971 0.26392 -0.39873 0.61623 0.31604 0.056175 -0.12186 -0.37628 0.12526 0.017467 -0.36304 -0.32935 0.28187 0.097859 0.078169 -0.12448 0.073168 -0.34656 0.15072 0.73519 -0.1648 0.48709 0.22186 0.07249 -0.2463 0.034146 -0.21235 0.22888 0.13847 0.013358 -0.0080151 0.36227 -0.12801 0.098319 -0.45287 -0.36426 -0.017149 1.0405 0.23171 0.45911 0.094972 -0.25215 -0.095767 0.67113 -0.072502 -0.054312 0.20788 -0.20108 -0.13025 -0.024266 0.13931 -0.64646 0.15568 0.033164 -0.062457 0.43754 -0.042123 -0.13927 0.0076721 -0.32529 0.47078
emergency -0.30501 -0.04406 -0.90655 0.03678 -0.22762 0.21943 0.32625 0.26811 -0.064809 -0.21538 -0.035967 -0.063263 0.050334 0.11719 0.32659 0.10356 0.23678 -0.016634 0.57241 0.10913 -0.090985 -0.20496 -0.14501 0.0961 0.11006 0.43857 0.018654 0.5113 -0.58664 -0.069316 -0.74135 0.091493 0.15821 -0.11465 -0.16469 0.22683 -0.089743 0.25435 -0.051594 -0.44454 0.28879 -0.17744 0.058786 0.0078413 -0.16088 -0.13936 0.27874 -0.044972 0.087758 0.17832 0.69761 0.11543 -0.50267 0.18695 0.10411 -0.60388 -0.2489 -0.18648 0.065633 -0.052442 0.065097 -0.23348 -0.68712 -0.24074 0.37754 -0.11652 -0.41495 0.24755 0.066974 0.11217 0.26718 0.1964 0.0043302 -0.12411 -0.30236 -0.073654 0.28011 -0.51178 0.55454 -0.47143 0.31759 -0.65136 0.1249 -0.18105 -0.4486 0.10958 -0.19971 0.25072 0.42909 0.023937 0.04377 -0.26519 0.17644 -0.046726 -0.13209 0.5002 -0.19108 -0.12182 -0.14637 0.3444 -0.093899 -0.29713 -0.32075 0.014577 0.12286 0.3302 0.082739 -0.22034 0.27534 0.027384 0.19509 -0.22546 -0.008583 -0.10396 -0.11257 -0.17358 0.23684 -0.13608 -0.52514 -0.26191 0.20351 -0.21669 -0.27589 0.16599 0.35171 0.25293 -0.10069 0.11784 0.12531 0.076812 -0.32885 -0.30252 0.051288 -0.48282 -0.078716 -0.10131 -0.0045033 -0.018044 -0.094755 -0.082228 -0.16823 -0.19147 0.16545 0.093517 0.64977 -0.18352 -0.14925 0.34774 0.37486 0.045029
Jackson -0.35248 0.067953 -0.14571 0.26063 0.38557 -0.77348 -0.075798 -0.37874 0.27232 0.88531 -0.043491 0.52591 0.19055 0.14717 -0.21849 0.31421 0.24609 -0.093732 -0.1498 0.17315 0.46661 0.20471 -0.58103 0.23735 0.01641 0.13072 -0.10124 0.091021 -0.2139 0.063919 -0.17901 -0.36076 0.02427 0.019132 -0.34282 0.4373 -0.38531 0.045512 0.018031 0.15216 0.29612 0.023735 -0.57917 -0.17686 -0.46643 -0.18075 0.45897 -0.20545 -0.0072845 -0.35252 0.54817 -0.28359 -0.27072 -0.065933 0.62484 0.068232 -0.039739 -0.40302 -0.1424 -0.58859 -0.1521 0.034858 0.58834 -0.14577 0.10412 -0.14327 0.22418 0.33994 0.088854 -0.098775 0.33737 0.19669 0.25129 -0.065077 0.34585 -0.57699 0.083662 -0.34879 0.34842 -0.067994 -0.20402 -0.35709 -0.29392 0.29863 0.13135 -0.024811 0.06302 -0.22713 -0.9358 0.05329 0.67553 -0.080568 -0.30456 -0.16001 0.021379 0.059586 -0.44298 0.25554 -0.11542 -0.24263 -0.04528 -0.41837 -0.025039 0.025348 -0.073352 0.25329 -0.40594 -0.12117 0.32148 -0.49012 0.40651 0.1562 0.27966 0.10655 -0.0094612 0.016019 0.11107 -0.3819 -0.29021 -0.1076 0.40305 -0.18353 -0.16977 -0.29225 -0.024249 0.10246 0.49515 0.39929 0.070258 0.35992 -0.37511 -0.41297 -0.39735 -0.31532 -0.58758 0.057174 -0.21456 0.27641 0.26875 0.36531 -0.60842 -0.07681 -0.10417 0.73583 0.30337 0.034793 -0.29097 0.17435 0.29883 -0.027675
institution -0.27433 0.19585 -0.48975 -0.051368 -0.38355 0.017724 -0.26458 0.21567 0.25215 -0.22992 -0.015332 -0.047343 0.026939 0.071958 0.46518 0.1902 -0.15269 0.19686 0.16466 -0.33986 -0.1147 -0.27501 -0.25603 -0.12135 0.0042775 0.20848 0.5665 0.10526 0.071303 -0.43007 -0.020421 -0.28942 -0.032258 0.16346 -0.04525 -0.14032 -0.039265 -0.068854 -0.49695 -0.27071 -0.031386 -0.065789 0.010896 -0.17981 -0.34859 -0.0031497 0.0088325 -0.0025407 0.072081 -7.2702E-4 0.12651 0.051353 -0.49338 0.11901 -0.46364 -0.19902 -0.028475 -0.14192 0.12672 -0.21894 -0.17342 -0.30461 -0.55148 -0.20744 -0.15761 0.1007 -0.018267 0.40131 0.12248 0.039791 0.33601 0.049215 0.25489 -0.28502 -0.26076 0.17941 0.33612 0.14474 0.45198 0.33551 -0.43269 0.11584 -0.1737 0.078732 0.18672 -0.37908 -0.017181 -0.39042 0.083446 0.17924 0.08027 -0.10999 0.24428 -0.03808 -0.16138 0.14295 0.054304 -0.21248 0.018235 -0.15667 -0.077851 -0.025245 0.061303 0.015404 -0.16897 -0.22167 0.10239 -0.12966 0.098244 -0.10764 0.16558 0.32627 0.1512 0.41878 0.20412 -0.032688 0.1946 0.094102 -0.080797 0.20365 0.11606 -0.17109 -0.22545 -0.065217 0.33744 -0.10348 0.14649 -0.27303 0.024167 0.21292 -0.21245 0.049744 0.12555 -0.36185 0.03302 0.066632 -0.51525 0.10629 -0.11583 -0.16018 -0.66672 -0.52311 0.26543 -0.18269 0.037067 0.063857 -0.15545 0.018111 -0.099693 -0.20478
bird 0.50093 -0.57931 0.16013 0.034009 0.080046 0.044938 -0.23493 0.3604 -0.13081 0.073977 -0.017606 0.40755 0.48074 0.38455 -0.067469 -0.089436 0.15143 -0.55343 0.0077891 0.02408 -0.11421 0.056279 0.41525 0.4226 -0.13416 -0.0813 0.46742 0.077712 -0.11049 0.042229 -0.39614 -0.14268 0.24224 0.1781 0.074576 0.38058 0.21274 -0.098293 -0.15826 -0.34176 0.47148 -0.42759 0.09969 -0.63867 -0.059807 -0.18149 0.096023 0.53874 -0.19468 0.11704 0.28994 -0.45307 -0.25248 0.23973 0.16354 -0.7417 -0.32317 -0.34917 -0.19046 0.16913 -0.3878 -0.010492 0.034437 -0.027454 -0.0091561 0.052936 0.17217 -0.36763 0.29512 0.42618 -0.40646 0.61179 -0.15145 0.66111 0.37682 0.13936 -0.14552 0.39268 0.36718 0.16221 -0.13284 0.011979 0.20457 0.05542 -0.1451 0.014186 -0.31357 0.18167 -0.022657 0.65547 0.17324 -0.044633 0.083089 0.57475 0.010299 -0.26105 0.35539 -0.059545 0.16604 0.099535 -0.16263 0.1784 -0.27986 -0.42125 -0.025115 0.083846 -0.051786 -0.14172 0.56416 0.21124 0.24436 0.072317 0.31681 0.47836 0.15651 -0.95517 0.099478 0.48058 -0.0082613 -0.014258 0.78227 -0.18118 0.37675 -0.58723 -0.27776 0.048121 0.62188 -0.11429 -0.49901 0.45133 0.11981 -0.056406 0.56828 -0.59311 -0.19866 -0.4504 0.38854 -0.37651 -0.074837 -0.28131 0.13374 -0.21447 0.10605 -0.39092 0.10294 -0.27459 -0.65633 -0.040527 -0.46837 -0.23045
Brazil -0.11168 -0.15935 0.014633 -0.43069 -0.13038 0.3803 -0.16711 0.23406 0.17749 0.46151 0.06741 0.25004 0.057721 -0.23937 -0.015461 0.069265 -0.46561 0.16575 -0.11217 0.039192 0.65298 -0.14961 0.19257 0.3681 0.0091266 0.037945 -0.33103 0.21095 -0.63098 -0.11576 -0.17035 -0.35021 -0.31213 -0.27681 -0.21653 -0.20362 0.16479 0.57261 0.44208 0.23474 0.13402 0.3675 0.19745 -0.22373 -0.37851 -0.11368 0.15307 0.062206 0.085087 0.037984 0.19936 0.017282 0.20689 -0.28569 0.0011262 -0.11854 -0.42982 0.3956 0.07869 -0.19944 -0.50441 -0.19967 -0.13642 -0.19888 0.11875 -0.16639 -0.33005 -0.26686 0.072078 -0.33245 0.15723 0.47125 0.50331 -0.20481 -0.20114 0.094999 0.19263 -0.44622 0.43145 0.067008 -0.13371 0.1208 0.23485 -0.35423 -0.16886 -0.1042 -0.043837 0.09722 0.43929 0.16921 -0.23014 0.076233 0.043472 0.071081 0.15732 -0.25137 -0.19734 0.11677 -0.10068 0.064978 -0.29461 -0.3133 -0.22082 0.32797 0.26942 0.69551 -0.57674 0.53012 1.082 -0.38568 0.1238 0.45422 -0.0011456 0.062503 -0.099006 -0.064467 0.4056 0.28486 -0.072384 0.0087384 -3.1889E-4 -0.16687 -0.016923 0.0051041 -0.54863 -0.63381 0.35809 -0.069338 0.044156 0.21396 -0.40547 -0.1961 0.5032 -0.095568 -0.077236 0.11467 -0.65151 0.11436 -0.48149 0.10403 0.093207 -0.81902 -0.24712 0.16915 0.14305 0.29724 -0.6399 0.12648 0.076476 0.07358
warning -0.20845 0.59332 -0.092192 -0.38446 0.1126 0.29692 0.20554 -0.090323 -0.30432 0.016706 -0.22673 -0.45301 0.20789 0.24348 0.31053 -0.24683 0.27786 -0.43289 -0.09587 -0.035058 0.0039364 -0.040534 -0.33265 0.15594 0.18082 0.13066 -0.31384 0.17956 0.038433 -0.023938 -0.38393 0.11807 0.60693 0.29037 0.16798 0.40342 -0.53281 0.089983 -0.052104 -0.27924 0.07056 -0.29086 0.1846 -0.25786 -0.37444 -0.21335 0.11225 0.19426 0.080048 0.13706 0.70991 -0.025915 -0.56395 0.19985 -0.0073842 -0.52908 -0.14309 -0.18018 0.094327 -0.019418 0.051858 0.2702 -0.10378 -0.17975 0.40933 -0.075703 0.28536 -0.24946 -0.18912 0.036138 0.48786 0.43273 0.074808 0.079443 -0.085737 0.76737 0.36651 0.012265 -0.13427 0.064838 -0.016687 -0.28787 0.098852 0.45499 -0.25304 0.10414 0.092721 0.1252 0.3535 0.088975 0.10286 -0.17186 0.22319 -0.24166 0.34725 0.046915 -0.16231 0.19747 -0.20225 0.17482 0.30186 -0.1483 -0.34888 -0.3139 -0.019269 -0.2353 -0.042259 0.33379 0.42077 0.17076 0.045128 0.26492 -0.23994 0.23096 0.060385 0.16648 -0.14219 0.10614 -0.29137 -0.18877 0.20978 0.10251 0.13607 0.16365 -0.33441 0.38741 0.23974 0.22584 0.10443 0.10296 -0.26655 0.078862 -0.32267 -0.12629 0.25839 -0.44352 -0.067284 0.13086 -0.066623 -0.25941 0.049042 0.011874 0.37967 -0.15936 0.16543 -0.33702 -0.51047 0.077361 -0.008375 -0.14734
implement -0.13312 0.047666 -0.087185 -0.059789 -0.7192 0.14499 0.062448 -0.089358 0.23936 -0.10101 0.14693 -0.071105 0.37247 0.44229 0.28344 0.081859 0.10928 -0.18255 0.20335 -0.54271 -0.23705 0.3132 -0.36284 0.1554 0.096122 0.66836 -0.051064 0.25416 -0.13258 -0.23251 -0.2629 0.25586 -0.081505 -0.19876 0.035939 -0.0042708 -0.1255 0.0062343 -0.36979 -0.27188 0.43985 -0.26897 0.47389 -0.49221 -0.13612 0.0018077 0.15743 0.18392 -0.16526 -0.16598 0.024952 -0.16748 0.44623 0.23223 0.12747 -0.088466 0.0064494 -0.05604 0.14124 0.0079027 -0.41002 -0.18159 -0.31814 -0.36969 0.053567 0.11012 -0.36458 0.18114 -0.23988 -0.063614 0.38527 -0.13098 0.47438 -0.26742 -0.013477 0.064455 -0.19338 -0.37744 -0.0095917 -0.078888 -0.25214 0.13819 0.29333 -0.084961 0.20832 0.018731 -0.22711 -0.2713 0.69983 -0.15972 -0.21752 -0.39374 0.51938 -0.12771 0.38412 0.23876 -0.24483 0.036711 0.17855 0.29674 -0.046921 -0.13448 -0.013356 -0.40469 -0.39929 0.33472 -0.29316 0.10407 0.3278 0.48218 0.011202 -0.059992 0.18407 0.1461 -0.087505 -0.2751 -0.34515 -0.024954 0.054258 0.15207 0.047212 -0.29498 -0.20922 -0.11033 0.19135 -0.12027 0.14482 0.1488 0.14503 0.17466 -0.047974 -0.2596 0.33516 0.16409 -0.013026 0.12079 -0.34458 -0.46904 -0.093193 0.096147 -0.20345 0.048445 0.17496 0.11598 0.10434 -0.45682 -0.097072 0.030697 0.10826 -0.55588
train 0.13012 -0.30247 0.14449 -0.52593 0.13481 0.21207 -0.1905 0.63895 0.16663 0.1915 -0.11152 -0.027914 -0.021405 -0.021269 0.12277 0.086241 0.50744 -0.23652 0.10939 0.071414 -0.34483 0.44466 -0.23706 -0.40578 0.21575 0.24534 -0.20024 0.095356 0.094215 -0.1368 -0.37233 -0.37967 -0.13341 -0.019565 -0.39491 0.28806 0.20827 -0.032756 -0.59815 -0.18806 0.36365 -0.026971 0.23571 0.061519 0.17906 -0.28621 -0.078589 -0.23345 0.15694 0.33625 0.18843 -0.016256 -0.071129 -0.066131 -0.28273 0.089544 0.16014 -0.076263 -0.04411 0.062387 -0.2653 -0.34787 -0.1266 -0.33806 -0.092036 -0.26103 0.032229 0.17246 0.071908 0.0068556 0.32931 0.13267 -0.21013 0.2879 0.089991 0.5026 -0.17306 -0.56087 -0.012017 -0.080965 0.070501 -0.12549 -0.22024 0.14744 -0.081377 -0.14214 -0.051907 -0.0029537 -0.20404 0.26403 0.040271 -0.52801 0.35882 -0.24599 -0.004211 0.33792 -0.17663 -0.72797 0.28547 -0.21999 -0.20943 -0.2507 -0.39473 -0.28181 -0.31081 0.4307 -0.62493 -0.12152 0.50981 0.23048 0.26724 -0.17141 0.39242 -0.11923 0.031909 -0.11482 -0.50879 0.22625 -0.19706 -0.080887 0.23084 -0.020363 0.055586 0.16115 -0.12991 -0.10462 -0.16779 0.030744 0.19556 -0.19658 -0.30122 -0.011448 0.3617 -0.23418 0.23354 -0.06387 -0.059858 0.22421 0.16799 -0.033483 -0.80628 -0.63001 0.17853 -0.24797 -0.0535 0.025076 -0.3521 -0.28101 -0.31918 0.23558
area -0.30016 -0.2206 -0.096925 0.33475 0.28409 0.19736 0.11371 -0.038847 0.26547 -0.1482 0.0014943 0.25513 0.09902 0.20657 -0.18625 0.16169 0.28718 0.10738 0.063927 -0.13143 0.12413 -0.18347 -0.34487 -0.16591 -0.24908 0.11346 0.34167 0.30574 -0.0038642 -0.0041439 -0.24387 -0.03272 -0.075318 0.030679 -0.40825 0.30757 -0.028225 -0.095954 -0.42234 0.077549 0.12435 0.079025 0.17051 0.11956 -0.27658 0.15784 0.099945 0.37893 0.045245 0.044573 0.088048 -0.12142 -0.32661 -0.26408 -0.22953 -0.30663 0.066961 -0.23093 0.03962 -0.16782 -0.36358 -0.40896 -0.22622 -0.36773 0.40163 0.27056 -0.33217 -0.2525 -0.085244 -0.27036 0.051017 0.012659 -0.15006 0.30639 -0.016772 0.09056 0.046032 -0.37886 -0.011397 -0.10351 0.31072 -0.15151 0.046109 0.36388 -0.0067406 0.30808 -0.12436 0.22337 0.097435 0.44199 0.088856 0.29801 0.37335 -0.10371 -0.069575 -0.155 -0.13003 -0.026027 -0.12862 -0.0073266 -0.082101 -0.31122 0.085467 -0.45921 -0.16562 -0.025133 -0.050961 0.23565 0.40562 -0.012192 0.074595 0.093108 0.025336 0.1702 0.2337 -0.18497 -0.058698 0.12306 -0.26339 -0.21408 0.19564 -0.084187 0.093528 0.077659 -0.27137 0.0761 0.20377 -0.043296 0.25966 0.17717 -0.44815 0.18999 0.037042 -0.18938 -0.0264 -0.3352 -0.096077 0.15564 0.1124 -0.07723 -0.32933 -0.21461 0.21294 -0.23505 0.077517 0.065116 -0.30552 0.15247 -0.39056 -0.063845
image 0.088413 0.32365 -0.29909 0.12875 0.08878 0.24575 0.077086 0.2092 -0.022683 0.26319 -0.034117 0.16959 0.26361 0.10539 0.01132 0.321 0.016114 -0.18344 0.36291 -0.15394 0.071882 0.18071 -0.37339 0.20792 -0.034482 0.51667 0.26083 -0.21712 -0.13053 -0.78896 -0.0033477 0.16141 0.18252 0.31314 -0.2398 -0.20674 -0.41086 -0.043386 -0.23747 0.11939 0.66207 0.038132 0.40224 -0.036104 -0.32296 0.12601 0.28087 -0.046967 0.23366 0.0020884 0.37193 -0.088429 -0.52649 -0.3166 0.43512 -0.2943 0.11956 -0.025089 -0.31123 0.0075313 0.39277 -0.1865 0.25616 -0.23526 8.6797E-4 0.1433 0.17608 -0.25282 -0.18732 -0.03896 0.35659 0.30567 -0.05461 -0.28393 0.010437 0.4267 0.016398 0.52351 0.32386 0.31235 -0.20451 0.28688 0.38047 -0.002574 -0.084905 0.063838 -0.078247 -0.31682 -0.053734 -0.46432 0.10967 0.22154 -0.40531 0.2057 0.16704 -0.25395 -0.019371 0.029664 0.3127 -0.065841 -0.35296 0.099163 0.30889 -0.22144 -0.20126 -0.0080487 -0.19925 0.45053 0.098065 -0.18845 -0.021865 0.39244 -0.17532 0.23024 -0.11411 0.030834 0.0026474 0.13164 0.072157 -0.16678 0.21842 -7.7177E-4 0.21206 -0.03603 -0.0284 -0.25514 -0.12706 -0.15652 0.36462 -0.049395 0.042579 -0.15309 -0.048483 -0.23987 -0.28977 0.12047 0.16971 -0.26927 -0.11081 0.12058 -0.69061 -0.40319 0.0048717 -0.2852 -0.078286 -0.40385 -0.23514 -0.066158 -0.4036 -0.19285
murder 0.30511 0.286 -0.55596 0.24999 0.11223 -0.28715 -0.6572 0.091799 0.12441 -0.25135 0.01608 0.22443 0.19283 0.31217 -0.15212 0.76073 0.057247 -0.18538 -0.19288 0.20181 -0.50168 0.34759 -0.1775 0.12089 0.27967 0.20513 0.47169 0.18558 -0.53431 -0.44806 -0.55671 -0.2078 -0.12462 0.47382 -0.33178 0.14481 0.061496 -0.0082528 -0.62583 -0.046201 0.31338 0.37962 0.57431 0.41866 -0.78254 -0.019514 0.015035 -0.050088 -0.096666 0.22399 -0.030391 0.22644 -0.11355 0.026717 -0.38622 0.036343 -0.10735 -0.46437 0.34094 -0.066867 -0.23177 -0.2916 0.31715 0.0044982 -0.31947 0.23809 0.1761 0.15086 -0.45169 -0.028098 -0.63822 -0.34574 0.15848 -0.058174 0.29623 -0.3948 0.042101 -0.24735 0.068742 -0.072029 -0.35027 -0.32458 0.029439 -0.49693 -0.097394 0.10636 0.14467 0.19394 0.3565 0.32085 0.22183 -0.008593 0.29874 -0.29636 0.048502 -0.03773 0.44964 -0.16506 0.43445 -0.21538 0.19455 -0.26876 -0.23842 -0.25798 0.30917 0.18015 -0.055714 0.27301 0.35076 -0.2649 0.054172 0.42284 0.13894 -0.2863 -0.19495 0.037028 0.12003 0.49872 0.14593 -0.069651 0.23525 -0.044189 0.052964 -0.35687 -0.034634 0.78221 0.51679 -0.35953 -0.038482 -0.16137 -0.65079 -0.18982 0.20286 0.1273 -0.39196 0.13154 0.1485 0.15588 -0.61045 0.31837 -0.52588 0.050389 0.26964 -0.16404 -0.13893 -0.30188 -0.80921 0.32096 -0.34032 -0.19296
journey 0.27438 -0.10972 0.056477 0.12064 0.39436 0.27435 -0.57892 0.21721 0.1245 -0.076215 -0.24579 0.41251 0.22224 -0.01836 0.13887 0.79588 0.29998 -0.17778 -0.16709 0.29593 -0.002827 0.377 -0.26743 -0.31605 0.1942 0.021985 -0.21223 -0.15327 -0.28695 -0.3007 -0.11971 -0.10865 0.14086 0.067128 -0.30511 0.31179 0.020843 -0.16129 -0.64567 0.10798 0.30319 0.29715 0.2997 -0.105 0.45475 -0.2448 0.26642 -0.38882 -0.14164 -0.0434 0.3489 -0.046825 -0.25227 0.15752 0.13135 0.018083 0.12902 -0.28212 -0.12955 0.2954 -0.26891 0.29312 0.053485 -0.31292 0.42611 0.089816 -0.14547 0.0016216 -0.40399 -0.082978 0.31481 0.34586 0.1067 -0.21647 -0.12947 -0.17102 -0.1823 -0.34112 -0.0469 0.3049 -0.13387 -0.33702 0.26516 0.37645 0.22073 0.18931 0.19934 0.35235 -0.28825 0.1834 -0.28441 -0.54094 -0.13603 0.037296 -0.063069 0.19535 -0.42064 0.072454 -0.10718 0.23579 -0.35223 0.15694 -0.14226 0.29736 -0.31174 0.015261 -0.26337 0.18131 0.24353 -0.017549 0.37392 0.3886 0.45521 -0.050202 -0.2747 -0.56946 -0.22921 0.39074 0.22295 0.0048272 0.48765 -0.21517 0.087323 0.21484 -0.22109 -0.14716 0.070099 -0.30458 -0.53312 -0.24539 0.068227 0.018821 0.31172 -0.19452 0.07669 0.014725 0.16289 0.24256 -0.023131 -0.31269 -0.71897 -0.28119 0.12242 -0.27509 0.29492 -0.22363 -0.30453 0.17038 -0.23302 0.2037
minister -0.44327 0.80826 -0.23292 0.14444 -0.12668 0.16322 0.20641 -0.072571 0.54701 -0.12204 0.13179 -0.25424 0.62233 0.54765 0.47674 0.46702 -0.13735 0.23914 -0.084959 0.1457 -0.10842 0.042485 0.1747 0.611 0.013471 0.46648 0.28261 -0.14471 -0.12393 0.16693 -0.56338 -0.15477 0.44112 0.32946 -0.10351 0.26774 0.31811 -0.22328 -0.31361 -0.31492 0.5146 -0.034826 0.087548 -0.047447 -0.025579 0.041806 -0.66616 0.46288 0.0095253 0.15945 0.0045011 -0.43303 -0.38398 -0.13549 -0.081298 -0.082888 -0.40757 0.1821 0.30904 -0.24034 -0.27197 0.19716 -0.48453 -0.125 0.40942 -0.40282 0.017222 -0.053245 -0.13209 0.15156 -0.004911 0.30276 0.20554 -0.35348 -0.26175 0.17257 -0.081342 -0.33816 0.47352 -0.22937 -0.23614 -0.35539 0.3592 -0.29348 -0.18031 0.078083 -0.24087 0.42344 -0.12816 0.53909 0.027452 -0.59264 -0.16689 0.040169 0.57065 -0.30863 0.37733 -0.078721 0.28259 0.096756 -0.30433 -0.76434 0.21464 -0.51939 0.041502 -0.38978 -0.0087357 0.20655 -0.04585 0.13861 0.44474 0.21274 0.35629 0.25483 0.031481 0.034552 -0.014125 0.29567 -0.096816 0.53805 -0.33013 -0.20287 -0.15986 0.1699 -0.21242 -0.050504 0.50885 -0.20168 0.12783 -0.070007 -0.35645 -0.19174 -0.0076768 0.32799 -0.10845 0.13489 -0.40666 0.13907 -0.29814 0.5588 -0.23905 -0.1027 0.072655 0.12859 0.20468 -0.29144 -0.032473 -0.23884 -0.16176 0.38855
planet 0.10831 0.13076 -0.30506 0.055764 0.10563 0.46556 -0.41009 0.56785 0.1162 0.27049 0.23747 0.11723 0.13216 -0.062658 0.47063 0.021909 -0.28058 0.053492 -0.086483 0.35827 -4.9049E-4 0.18399 -0.32344 0.30155 -0.12247 0.52792 0.24326 -0.88141 -0.31227 -0.18434 -0.74868 -0.1558 0.3164 0.38611 -0.31978 -0.088644 0.39237 -0.26003 -0.61852 0.13831 0.75949 -0.058324 0.032048 0.11594 -0.088368 -0.25527 0.44994 0.064317 0.070669 -0.25507 -0.077441 -0.0061578 -0.044501 0.0076609 0.12655 -0.58742 0.484 -0.051054 0.086384 -0.17122 0.13225 -0.28969 0.29406 0.017154 0.54356 -0.21972 -0.23012 -0.24383 0.0081755 0.073194 -0.26441 0.20723 -0.13765 -0.094102 -0.034697 0.17083 0.30785 0.094197 0.23334 0.20523 -0.53795 -0.0033364 0.036331 0.12096 0.48563 0.0065787 -0.18389 -0.19233 0.092654 0.1824 0.14969 0.12671 0.060157 -0.1865 -0.13534 -0.4184 -0.12491 0.64767 -0.63784 -0.012604 -0.62612 0.63196 -0.047775 0.21037 -0.21543 -0.20057 -0.091778 0.4332 0.39684 0.27012 -0.38456 0.20576 0.21875 -0.036699 -0.49125 -0.58689 -0.23792 0.22183 -0.047317 0.13142 0.24248 -0.27541 0.19851 -0.30493 -0.20863 0.16304 0.20192 -0.10278 -0.32188 0.66328 -0.067468 0.1527 0.37463 -0.078258 -0.49352 0.056326 -0.022924 0.2697 0.0040334 -0.37003 -0.054573 -0.39542 0.3318 -0.016966 0.12681 0.1742 -0.60021 0.10741 -0.10063 0.20141
article 0.50757 0.66675 -0.61731 -0.0082982 -0.43122 -0.19569 -0.61515 0.00948 0.20849 0.34591 -0.28071 0.21628 0.53773 -0.13424 -0.25611 0.02588 0.5622 -0.1434 -0.81145 -0.15014 0.043623 0.51537 -0.31737 0.11451 0.29462 -0.063232 -0.54146 0.0049636 -0.18821 0.097999 -0.23575 -0.18084 0.048512 0.47521 -0.17687 0.15996 0.093169 -1.0021 0.28184 -0.32098 0.15013 -0.13595 0.44386 0.59168 -0.68756 -0.69801 -0.34408 -0.34253 -0.23023 -0.27879 -0.22424 -0.1474 -0.89607 0.12027 -0.23479 -1.2621 -0.31609 -0.46924 0.21611 -0.18041 -0.18432 -0.57883 0.034211 -0.58979 0.098232 0.48307 -0.067676 -0.20851 -0.12577 0.67603 0.30973 -0.25492 0.041545 0.055174 0.35058 0.19756 -0.21596 -0.020374 0.026797 0.16476 0.097534 0.049819 0.535 -0.16785 0.058354 -0.15288 -0.23615 0.30416 0.75173 0.32865 0.5091 -0.358 -0.086125 -0.037431 0.44433 0.14351 -0.57527 -0.14666 0.60998 0.032582 0.19902 0.031255 0.20764 -0.028575 -0.09606 -0.0436 -0.080721 0.61483 0.31021 -0.24136 -0.22501 0.15614 -0.48101 0.56719 0.20846 0.033745 -0.061288 0.65429 0.52462 0.11131 0.11577 -0.21166 -0.24816 -0.42005 0.7245 -0.12052 -0.13553 -0.027613 -0.23675 0.32103 0.22833 -0.15015 0.4457 0.18629 0.025433 0.40329 -0.24398 0.39775 0.084804 -0.10388 -0.45818 -0.22072 0.0041196 -0.07076 0.08079 -0.057308 -0.66487 0.042896 0.044117 0.27079
anxiety 0.32099 0.32728 -0.022994 -0.40426 0.011235 -0.30345 -0.1996 0.13683 0.52864 -0.15703 0.028991 -0.34362 -0.14418 -0.13783 -0.11033 0.37996 -0.14998 -0.016178 -0.33657 -0.043307 -0.19451 -0.11843 -0.22551 -0.096147 0.22904 0.45558 0.14949 0.056817 -0.58176 -0.11334 -0.10067 0.31274 -0.10959 -0.36465 -0.27564 0.39648 -0.23393 -0.11009 -0.43482 0.14576 0.24376 -0.057207 -0.055994 -0.16803 0.11816 0.038958 0.23407 0.43565 -0.18625 0.11817 -0.20837 0.067146 -1.0031 -0.0093892 0.13249 -0.38695 0.25477 -0.15708 -0.17834 -0.20587 -0.13877 0.41406 -0.047997 -0.57962 0.34223 0.22781 0.26007 0.2385 -0.044534 0.39692 0.69963 0.33826 -0.18943 0.24019 -0.23724 0.31866 -0.006355 -0.30017 -0.033538 0.19835 -0.13878 0.16178 -0.19246 0.367 -0.20005 -0.42931 0.12113 -0.18777 -0.10826 0.038827 0.31855 0.12913 -0.20875 -0.071202 -0.50318 0.038168 -0.32449 -0.48228 0.13482 0.0084997 0.27556 -0.11171 -0.38255 0.2017 0.24033 0.3251 0.20675 0.26522 0.48319 0.209 0.033276 0.25617 -0.11267 -0.026082 0.19923 -0.035057 0.42889 0.073294 0.036647 -0.17401 0.67002 -0.21181 0.73207 0.12283 0.049849 0.33158 0.13442 -0.10093 -0.11212 0.31232 0.0026185 0.028026 -0.52591 0.19657 -0.15479 0.17919 -0.22782 -0.15669 -0.12592 -0.11977 -0.14512 0.32821 0.17184 0.48292 0.2931 -0.6374 -0.4058 0.12453 -0.34606 -0.034999
month 0.32037 -0.11885 -0.46476 0.29641 0.1121 -0.024394 0.010761 0.063967 0.14673 0.39341 -0.28788 -0.076432 0.3047 0.11737 0.053446 -0.028921 -0.097341 0.011736 0.0074088 0.24334 -0.038046 0.1947 -0.062271 -0.14765 0.13314 -0.012951 0.34374 -0.082204 -0.09462 0.021675 -0.17014 -0.033839 0.46544 -0.024327 -0.08994 0.1206 0.14713 0.0027981 -0.0026372 0.21664 0.10678 0.04194 0.39895 0.037298 0.046536 -0.13194 -0.16114 0.03301 -0.018877 0.010344 0.55948 0.083982 -0.17983 -0.20651 -0.3243 -0.18716 -0.12744 0.19474 0.10934 0.2652 -0.064276 -0.085846 0.17436 -0.33908 0.03711 -0.32794 0.1202 -0.14741 -0.33319 0.22134 0.21673 0.097433 0.30346 -0.18384 -0.38612 0.32069 0.18814 -0.42219 0.14908 0.18671 -0.25854 -0.29882 -0.028304 0.12747 -0.13148 -0.13153 0.086495 0.14521 0.24975 0.11901 -0.061017 0.06885 0.42916 0.03725 0.27706 -0.12494 -0.2609 -0.044791 -0.19325 0.23212 0.01005 -0.3455 0.048915 -0.14912 0.07963 0.30862 -0.30233 0.070129 0.085398 0.14737 0.23152 0.0010824 0.063921 0.46455 0.021197 0.1033 0.20056 -0.0030204 0.11992 -0.2616 -0.0070392 -0.028028 -0.11655 -0.21915 -0.41546 -0.070206 0.057547 -0.0055311 -0.081762 0.18721 0.30189 -0.194 -0.10203 -0.19096 0.40463 0.16263 -0.25281 -0.031748 0.053104 0.44229 -0.28935 0.12278 0.31577 -0.13543 0.19249 -0.27339 -0.26011 0.29454 -0.13068 -0.36908
carnivore -0.10475 -0.24811 0.30845 0.05294 -0.055058 0.10714 -0.41964 0.25257 0.26473 0.078988 0.37012 -0.17595 0.24906 -0.13161 0.024869 0.0059169 -0.30031 -0.039388 -0.08472 0.17207 -0.17356 -6.1028E-4 -0.027665 0.2942 -0.12106 -0.012736 0.16236 -0.42836 -0.11728 -0.37926 -0.064371 -0.11087 -0.16834 -0.16529 -0.079884 0.24079 0.30275 -0.067833 -0.4178 -0.38028 0.15143 0.23538 0.1739 -0.059118 -0.24625 0.048962 0.26204 0.40497 -0.045362 -0.054635 0.43461 -0.038415 -0.43298 -0.026549 0.10938 -0.53427 0.10967 -0.10945 -0.20732 -0.29995 -0.32944 -0.20102 0.21853 -0.31665 0.13208 0.020119 0.082923 0.045999 0.073999 0.0041602 -0.011429 0.29227 -0.28507 -0.066712 0.24441 0.1075 0.1338 0.25368 0.078607 0.49307 -0.30908 0.35926 0.1412 -0.26471 -0.17978 -0.032883 -0.036849 0.17264 -0.13778 0.037234 -0.055565 0.088848 0.27706 0.4242 -0.059139 -0.30422 -0.03831 -0.024854 -0.21655 -0.14356 -0.60173 0.23802 -0.34068 -0.08217 -0.18182 0.058663 0.080284 0.18927 0.62332 -0.11194 -0.048236 0.55554 0.15972 0.52339 -0.059869 -0.15234 -0.070202 0.35389 0.17338 0.1011 0.49617 -0.45813 0.11199 -0.59338 -0.1689 0.052857 0.55931 -0.15362 -0.38671 0.22508 -0.40267 -0.02393 0.38993 0.048823 -0.14673 -0.098623 -0.040828 -0.10832 -0.37679 -0.34249 -0.22679 -0.27776 -0.022514 0.015144 0.27207 -0.095966 -0.71052 -0.13799 -0.34503 -0.0078086
